


    // !!! This file is generated using emlearn !!!

    #include <eml_trees.h>
    

static const EmlTreesNode machine_learning_nodes[3746] = {
  { 0, 20.650000f, 1, -1 },
  { 1, 79.950001f, 1, -1 },
  { 2, 0.009050f, -2, -1 },
  { 2, 0.003745f, 1, 20 },
  { 2, 0.003571f, 1, 13 },
  { 2, 0.001328f, 1, 10 },
  { 2, 0.001261f, 1, 2 },
  { 1, 79.950001f, -2, -1 },
  { 0, 19.849999f, 1, 6 },
  { 2, 0.001325f, 1, 4 },
  { 2, 0.001319f, -2, 1 },
  { 0, 19.750000f, -2, 1 },
  { 1, 79.900002f, -2, -1 },
  { 1, 79.600002f, -2, -1 },
  { 1, 80.000000f, -2, -1 },
  { 1, 79.950001f, 1, -1 },
  { 0, 21.900001f, -2, -1 },
  { 1, 69.500000f, 1, 5 },
  { 1, 38.250000f, -2, 1 },
  { 2, 0.003744f, 1, -2 },
  { 2, 0.003659f, -1, 1 },
  { 0, 15.050000f, -2, -1 },
  { 0, 21.850000f, -2, -1 },
  { 0, 20.150001f, 1, 3 },
  { 2, 0.009050f, 1, -1 },
  { 1, 80.649998f, -2, -1 },
  { 0, 20.400000f, 1, -1 },
  { 0, 20.250000f, -1, -2 },
  { 1, 71.850002f, 1, 19 },
  { 1, 33.200000f, 1, 8 },
  { 1, 19.250000f, 1, 2 },
  { 0, 21.150001f, -2, -1 },
  { 2, 0.003575f, -2, 1 },
  { 2, 0.003670f, -1, 1 },
  { 2, 0.004149f, 1, -2 },
  { 1, 26.099999f, 1, -1 },
  { 0, 21.900000f, -2, -1 },
  { 1, 60.450001f, 1, 3 },
  { 2, 0.003519f, -2, 1 },
  { 0, 20.150000f, -2, -1 },
  { 1, 71.649998f, 1, 2 },
  { 0, 21.099999f, -2, -1 },
  { 1, 71.750000f, 1, 4 },
  { 2, 0.003283f, -2, 1 },
  { 2, 0.004095f, -1, 1 },
  { 0, 23.450000f, -2, -1 },
  { 0, 21.750000f, -2, -1 },
  { 2, 0.003571f, 1, 5 },
  { 1, 79.950001f, 1, -1 },
  { 2, 0.003535f, -2, 1 },
  { 1, 77.049999f, -2, 1 },
  { 0, 21.800000f, -2, -1 },
  { 1, 78.049999f, 1, 19 },
  { 1, 76.750000f, 1, 17 },
  { 0, 21.350000f, 1, -1 },
  { 0, 18.650001f, 1, 14 },
  { 1, 73.649998f, 1, 2 },
  { 2, 0.010330f, -2, -1 },
  { 1, 74.649998f, 1, 9 },
  { 1, 74.450001f, 1, 6 },
  { 1, 73.750000f, 1, 2 },
  { 2, 0.009118f, -2, -1 },
  { 1, 74.350002f, 1, 2 },
  { 2, 0.009118f, -2, -1 },
  { 2, 0.008308f, -2, -1 },
  { 0, 18.400000f, -2, 1 },
  { 2, 0.008553f, -2, -1 },
  { 1, 75.150002f, 1, -2 },
  { 0, 18.350000f, -2, -1 },
  { 2, 0.009050f, -2, -1 },
  { 0, 21.650001f, -2, -1 },
  { 0, 20.100000f, 1, -1 },
  { 2, 0.003833f, 1, 2 },
  { 1, 81.849998f, -2, -1 },
  { 2, 0.003909f, 1, 2 },
  { 2, 0.003891f, -2, -1 },
  { 1, 84.849998f, -2, -1 },
  { 2, 0.003745f, 1, 5 },
  { 1, 67.049999f, 1, 2 },
  { 0, 21.850000f, -2, -1 },
  { 0, 22.000000f, 1, -1 },
  { 1, 79.950001f, -2, -1 },
  { 0, 20.150001f, 1, -1 },
  { 1, 74.750000f, 1, 2 },
  { 2, 0.009050f, -2, -1 },
  { 0, 18.650001f, 1, 3 },
  { 1, 84.700001f, 1, -1 },
  { 2, 0.008668f, -2, -1 },
  { 2, 0.009523f, -2, -1 },
  { 2, 0.003745f, 1, 44 },
  { 1, 67.049999f, 1, 2 },
  { 0, 21.800000f, -2, -1 },
  { 0, 21.850000f, 1, -1 },
  { 0, 19.849999f, 1, 33 },
  { 0, 19.450000f, 1, 23 },
  { 2, 0.002159f, 1, 10 },
  { 2, 0.002070f, -2, 1 },
  { 2, 0.002087f, 1, 5 },
  { 0, 19.349999f, 1, 3 },
  { 0, 19.250000f, -2, 1 },
  { 1, 79.850002f, -2, -1 },
  { 1, 79.950001f, -2, -1 },
  { 2, 0.002142f, 1, 2 },
  { 1, 80.199997f, -2, -1 },
  { 1, 79.950001f, -2, -1 },
  { 0, 19.250000f, 1, 3 },
  { 0, 19.050000f, -2, 1 },
  { 1, 79.950001f, -2, -1 },
  { 0, 19.349999f, 1, 2 },
  { 1, 79.899998f, -2, -1 },
  { 2, 0.002848f, 1, -2 },
  { 2, 0.002598f, 1, 3 },
  { 2, 0.002228f, 1, -2 },
  { 1, 79.700001f, -2, -1 },
  { 2, 0.002664f, 1, 2 },
  { 1, 79.849998f, -2, -1 },
  { 1, 78.899998f, -2, -1 },
  { 2, 0.001313f, 1, 2 },
  { 1, 80.100002f, -2, -1 },
  { 0, 19.650001f, -2, 1 },
  { 0, 19.750000f, 1, 4 },
  { 2, 0.002591f, 1, -2 },
  { 2, 0.002574f, -2, 1 },
  { 1, 78.799999f, -2, -1 },
  { 2, 0.001883f, 1, -2 },
  { 1, 89.900002f, -2, -1 },
  { 2, 0.001329f, 1, 4 },
  { 0, 19.950000f, 1, 2 },
  { 1, 80.049999f, -2, -1 },
  { 1, 79.950001f, -2, -1 },
  { 0, 19.950000f, 1, 2 },
  { 1, 79.849998f, -2, -1 },
  { 1, 80.200001f, -2, -1 },
  { 0, 20.400000f, 1, -1 },
  { 1, 74.750000f, 1, 2 },
  { 2, 0.009050f, -2, -1 },
  { 2, 0.009523f, 1, -1 },
  { 1, 80.649998f, -2, -1 },
  { 1, 71.850002f, 1, 12 },
  { 1, 33.200000f, 1, 10 },
  { 1, 19.250000f, 1, 2 },
  { 1, 2.000000f, -2, -1 },
  { 1, 25.250000f, 1, 4 },
  { 2, 0.003805f, -2, 1 },
  { 1, 23.049999f, -2, 1 },
  { 0, 21.900000f, -2, -1 },
  { 2, 0.003575f, -2, 1 },
  { 1, 25.750000f, -1, 1 },
  { 0, 21.450000f, -2, -1 },
  { 0, 20.600000f, -2, -1 },
  { 0, 21.050000f, 1, -1 },
  { 0, 18.650001f, 1, 16 },
  { 1, 73.649998f, 1, 2 },
  { 2, 0.010331f, -2, -1 },
  { 0, 18.349999f, 1, 7 },
  { 2, 0.010514f, 1, -1 },
  { 2, 0.003798f, -2, 1 },
  { 2, 0.003850f, -1, 1 },
  { 2, 0.003909f, 1, 2 },
  { 1, 79.199997f, -2, -1 },
  { 1, 84.250000f, -2, -1 },
  { 1, 75.549999f, 1, 5 },
  { 0, 18.550000f, 1, 3 },
  { 0, 18.450000f, -1, 1 },
  { 2, 0.009284f, -2, -1 },
  { 2, 0.009050f, -2, -1 },
  { 0, 18.500000f, -1, -2 },
  { 0, 18.950000f, 1, 4 },
  { 1, 73.649998f, 1, 2 },
  { 2, 0.008808f, -2, -1 },
  { 2, 0.009050f, -2, -1 },
  { 1, 79.950001f, 1, -1 },
  { 1, 74.750000f, 1, 29 },
  { 1, 73.649998f, -2, 1 },
  { 1, 74.149998f, 1, 8 },
  { 1, 73.950001f, 1, 4 },
  { 0, 19.050000f, 1, 2 },
  { 2, 0.008892f, -2, -1 },
  { 2, 0.009526f, -2, -1 },
  { 1, 74.049999f, 1, 2 },
  { 2, 0.008987f, -2, -1 },
  { 2, 0.008971f, -2, -1 },
  { 1, 74.450001f, 1, 9 },
  { 1, 74.350002f, 1, 7 },
  { 0, 19.150001f, 1, -2 },
  { 0, 19.050000f, 1, 2 },
  { 2, 0.008987f, -2, -1 },
  { 1, 74.250000f, 1, 2 },
  { 2, 0.009579f, -2, -1 },
  { 2, 0.008923f, -2, -1 },
  { 2, 0.008987f, -2, -1 },
  { 1, 74.549999f, 1, 2 },
  { 2, 0.008923f, -2, -1 },
  { 0, 19.150001f, 1, -2 },
  { 1, 74.649998f, 1, 4 },
  { 0, 19.050000f, 1, 2 },
  { 2, 0.009818f, -2, -1 },
  { 2, 0.009757f, -2, -1 },
  { 0, 19.050000f, 1, 2 },
  { 2, 0.009337f, -2, -1 },
  { 2, 0.009467f, -2, -1 },
  { 2, 0.009440f, -2, -1 },
  { 1, 71.950001f, 1, 12 },
  { 2, 0.003541f, -2, 1 },
  { 2, 0.008135f, 1, -2 },
  { 1, 26.049999f, 1, 8 },
  { 2, 0.004779f, 1, 6 },
  { 1, 19.850000f, -1, 1 },
  { 1, 24.550000f, 1, 3 },
  { 2, 0.003874f, 1, -2 },
  { 0, 21.849999f, -2, -1 },
  { 0, 21.500000f, -2, -1 },
  { 0, 24.300000f, -2, -1 },
  { 0, 20.550000f, -2, -1 },
  { 1, 78.450001f, 1, 3 },
  { 0, 21.200000f, 1, -1 },
  { 2, 0.009050f, -2, -1 },
  { 0, 20.150001f, 1, -1 },
  { 0, 19.450000f, 1, 4 },
  { 0, 19.250000f, 1, 2 },
  { 1, 79.950001f, -2, -1 },
  { 1, 79.950001f, -2, -1 },
  { 2, 0.001326f, 1, 11 },
  { 2, 0.001270f, 1, 5 },
  { 0, 19.849999f, -2, 1 },
  { 0, 19.950000f, 1, 2 },
  { 1, 80.200001f, -2, -1 },
  { 1, 79.950001f, -2, -1 },
  { 2, 0.001317f, 1, 4 },
  { 0, 19.750000f, -2, 1 },
  { 2, 0.001305f, -1, 1 },
  { 1, 80.050003f, -2, -1 },
  { 1, 79.950001f, -2, -1 },
  { 2, 0.001964f, 1, -2 },
  { 0, 19.950000f, 1, 2 },
  { 1, 79.950001f, -2, -1 },
  { 2, 0.001370f, 1, -2 },
  { 2, 0.001357f, -2, 1 },
  { 1, 79.900002f, -2, -1 },
  { 0, 20.350000f, 1, -1 },
  { 1, 79.950001f, 1, -1 },
  { 2, 0.009050f, -2, -1 },
  { 2, 0.003745f, 1, 5 },
  { 1, 66.450001f, 1, 2 },
  { 0, 21.850000f, -2, -1 },
  { 0, 21.850000f, 1, -1 },
  { 1, 79.950001f, -2, -1 },
  { 1, 72.549999f, 1, 6 },
  { 1, 72.250000f, 1, 2 },
  { 0, 20.650000f, -2, -1 },
  { 1, 72.450001f, 1, 2 },
  { 0, 21.950000f, -2, -1 },
  { 0, 22.000000f, -2, -1 },
  { 0, 20.400001f, 1, -1 },
  { 1, 74.750000f, 1, 23 },
  { 1, 73.649998f, 1, 2 },
  { 2, 0.008855f, -2, -1 },
  { 0, 18.650001f, 1, 19 },
  { 0, 17.150000f, 1, 2 },
  { 2, 0.010747f, -2, -1 },
  { 1, 74.149998f, 1, 7 },
  { 0, 18.550000f, 1, 3 },
  { 1, 73.750000f, 1, -1 },
  { 2, 0.009059f, -2, -1 },
  { 1, 73.750000f, 1, 2 },
  { 2, 0.009118f, -2, -1 },
  { 2, 0.009050f, -2, -1 },
  { 1, 74.549999f, 1, 8 },
  { 0, 18.550000f, -1, 1 },
  { 1, 74.450001f, 1, -1 },
  { 1, 74.350002f, 1, 4 },
  { 1, 74.250000f, 1, 2 },
  { 2, 0.009417f, -2, -1 },
  { 2, 0.009401f, -2, -1 },
  { 2, 0.009401f, -2, -1 },
  { 2, 0.009722f, -2, -1 },
  { 2, 0.009050f, -2, -1 },
  { 0, 18.650001f, 1, 2 },
  { 2, 0.008668f, -2, -1 },
  { 1, 75.049999f, 1, 6 },
  { 0, 18.849999f, 1, 2 },
  { 2, 0.009862f, -2, -1 },
  { 1, 74.850002f, 1, -2 },
  { 0, 19.050000f, 1, -2 },
  { 2, 0.008791f, -2, -1 },
  { 0, 19.150001f, 1, -2 },
  { 1, 75.250000f, 1, -2 },
  { 1, 75.149998f, -2, 1 },
  { 0, 19.050000f, -2, 1 },
  { 2, 0.008600f, -2, -1 },
  { 0, 20.400000f, 1, -1 },
  { 1, 79.950001f, 1, -1 },
  { 0, 18.650001f, 1, 4 },
  { 0, 18.550000f, 1, 2 },
  { 2, 0.009137f, -2, -1 },
  { 2, 0.009050f, -2, -1 },
  { 2, 0.009050f, -2, -1 },
  { 0, 20.600000f, 1, -1 },
  { 2, 0.009050f, 1, -1 },
  { 0, 20.400000f, 1, 14 },
  { 2, 0.001305f, 1, 4 },
  { 2, 0.001261f, 1, 2 },
  { 1, 79.950001f, -2, -1 },
  { 1, 80.000000f, -2, -1 },
  { 2, 0.001325f, 1, 8 },
  { 0, 19.750000f, -2, 1 },
  { 0, 19.849999f, 1, 3 },
  { 2, 0.001317f, -1, 1 },
  { 1, 80.100002f, -2, -1 },
  { 2, 0.001317f, 1, 2 },
  { 1, 81.100002f, -2, -1 },
  { 1, 80.049999f, -2, -1 },
  { 1, 79.950001f, -2, -1 },
  { 1, 83.700001f, -2, -1 },
  { 2, 0.003745f, 1, 34 },
  { 1, 66.849998f, 1, 2 },
  { 0, 21.850000f, -2, -1 },
  { 1, 78.450001f, 1, 25 },
  { 2, 0.003571f, 1, 5 },
  { 2, 0.003540f, -2, 1 },
  { 2, 0.003568f, 1, -2 },
  { 2, 0.003552f, 1, -1 },
  { 0, 21.800000f, -2, -1 },
  { 2, 0.003700f, 1, 9 },
  { 1, 76.649998f, 1, 5 },
  { 2, 0.003660f, 1, 3 },
  { 2, 0.003651f, 1, -2 },
  { 2, 0.003646f, -2, -1 },
  { 0, 22.000000f, -2, -1 },
  { 1, 76.750000f, 1, 2 },
  { 0, 21.700000f, -2, -1 },
  { 0, 21.600000f, -2, -1 },
  { 2, 0.003744f, 1, -2 },
  { 1, 76.649998f, 1, 5 },
  { 1, 76.149998f, -2, 1 },
  { 1, 76.250000f, 1, 2 },
  { 0, 21.750000f, -2, -1 },
  { 0, 21.750000f, -2, -1 },
  { 1, 76.950001f, 1, 2 },
  { 0, 21.750000f, -2, -1 },
  { 1, 78.049999f, 1, -1 },
  { 0, 21.750000f, -2, -1 },
  { 2, 0.003555f, 1, 4 },
  { 0, 19.450000f, 1, 2 },
  { 1, 79.950001f, -2, -1 },
  { 1, 79.950001f, -2, -1 },
  { 1, 78.549999f, 1, -1 },
  { 0, 21.350000f, -2, -1 },
  { 2, 0.004957f, 1, 10 },
  { 2, 0.004956f, 1, -2 },
  { 2, 0.004167f, 1, 7 },
  { 0, 20.300000f, 1, -1 },
  { 2, 0.003821f, 1, 4 },
  { 0, 18.550000f, 1, -2 },
  { 2, 0.003815f, 1, -1 },
  { 1, 76.049999f, -2, -1 },
  { 1, 80.399998f, -2, -1 },
  { 0, 20.150001f, -2, -1 },
  { 1, 70.850002f, 1, 10 },
  { 1, 34.199999f, -2, 1 },
  { 2, 0.008135f, 1, -2 },
  { 2, 0.007679f, 1, 6 },
  { 2, 0.006446f, 1, 4 },
  { 1, 61.549999f, -1, 1 },
  { 1, 61.850000f, 1, -1 },
  { 0, 20.850000f, -2, -1 },
  { 2, 0.006448f, -2, -1 },
  { 0, 19.950001f, -2, -1 },
  { 0, 18.650001f, 1, 4 },
  { 0, 18.550000f, 1, 2 },
  { 2, 0.008923f, -2, -1 },
  { 2, 0.009050f, -2, -1 },
  { 2, 0.009050f, -2, -1 },
  { 2, 0.003745f, 1, 5 },
  { 0, 21.700001f, 1, -1 },
  { 0, 19.849999f, 1, 2 },
  { 1, 79.950001f, -2, -1 },
  { 1, 79.950001f, -2, -1 },
  { 1, 72.549999f, 1, 11 },
  { 1, 72.250000f, 1, 3 },
  { 2, 0.008097f, 1, -2 },
  { 0, 20.650000f, -2, -1 },
  { 2, 0.004399f, 1, 2 },
  { 0, 21.950000f, -2, -1 },
  { 2, 0.004682f, 1, 4 },
  { 1, 72.350002f, -1, 1 },
  { 1, 72.450001f, -2, 1 },
  { 0, 23.350000f, -2, -1 },
  { 0, 22.849999f, -2, -1 },
  { 0, 20.300000f, 1, -1 },
  { 2, 0.009050f, 1, -1 },
  { 1, 80.649998f, -2, -1 },
  { 2, 0.003745f, 1, 3 },
  { 0, 22.000000f, 1, -1 },
  { 1, 79.950001f, -2, -1 },
  { 0, 20.650000f, 1, -1 },
  { 1, 74.750000f, 1, 2 },
  { 2, 0.009050f, -2, -1 },
  { 0, 5.650000f, 1, 2 },
  { 1, 80.199997f, -2, -1 },
  { 2, 0.009589f, 1, -1 },
  { 0, 18.099999f, 1, -2 },
  { 0, 17.600000f, -2, -1 },
  { 1, 71.850002f, 1, 40 },
  { 1, 33.200000f, 1, 2 },
  { 0, 21.300000f, -2, -1 },
  { 1, 70.750000f, 1, 36 },
  { 1, 60.450001f, 1, 33 },
  { 2, 0.003510f, -2, 1 },
  { 2, 0.004632f, 1, 27 },
  { 1, 53.850000f, 1, 4 },
  { 1, 53.049999f, 1, 2 },
  { 0, 22.599999f, -2, -1 },
  { 0, 14.300000f, -2, -1 },
  { 2, 0.004530f, 1, 11 },
  { 1, 59.750000f, 1, 8 },
  { 2, 0.003949f, -1, 1 },
  { 2, 0.003953f, 1, 3 },
  { 1, 55.549999f, -1, 1 },
  { 0, 12.950000f, -2, -1 },
  { 1, 59.250000f, 1, -1 },
  { 2, 0.004343f, 1, -1 },
  { 0, 21.000000f, -2, -1 },
  { 1, 60.250000f, 1, -1 },
  { 0, 20.050000f, -2, -1 },
  { 1, 58.250000f, 1, 9 },
  { 2, 0.004564f, -1, 1 },
  { 2, 0.004568f, 1, 3 },
  { 1, 58.150000f, -1, 1 },
  { 0, 13.500000f, -2, -1 },
  { 2, 0.004628f, -1, 1 },
  { 1, 57.950001f, -1, 1 },
  { 1, 58.049999f, 1, -1 },
  { 0, 12.800000f, -2, -1 },
  { 2, 0.004533f, 1, -1 },
  { 0, 20.600000f, -2, -1 },
  { 2, 0.004674f, 1, 2 },
  { 0, 20.500000f, -2, -1 },
  { 2, 0.004957f, 1, -1 },
  { 0, 16.950000f, -2, -1 },
  { 2, 0.003550f, -2, 1 },
  { 0, 20.700000f, -2, -1 },
  { 0, 21.000000f, -2, -1 },
  { 2, 0.003571f, 1, 11 },
  { 0, 21.900001f, 1, -1 },
  { 0, 19.849999f, 1, 4 },
  { 2, 0.002228f, 1, 2 },
  { 1, 80.000000f, -2, -1 },
  { 1, 79.950001f, -2, -1 },
  { 2, 0.001329f, 1, 2 },
  { 1, 79.950001f, -2, -1 },
  { 0, 19.950000f, 1, 2 },
  { 1, 82.049999f, -2, -1 },
  { 1, 80.049999f, -2, -1 },
  { 1, 78.149998f, 1, 12 },
  { 1, 76.750000f, 1, 10 },
  { 1, 72.750000f, 1, 2 },
  { 0, 21.900000f, -2, -1 },
  { 1, 73.250000f, 1, 5 },
  { 0, 21.200001f, 1, -1 },
  { 0, 18.950000f, 1, -2 },
  { 1, 73.149998f, -2, 1 },
  { 2, 0.008839f, -2, -1 },
  { 2, 0.009050f, 1, -1 },
  { 0, 20.950000f, -2, -1 },
  { 0, 21.650001f, -2, -1 },
  { 1, 78.350002f, 1, 2 },
  { 0, 21.800000f, -2, -1 },
  { 0, 20.100000f, 1, -1 },
  { 2, 0.003933f, 1, 2 },
  { 0, 18.450000f, -1, -2 },
  { 1, 84.750000f, -2, -1 },
  { 1, 71.850002f, 1, 3 },
  { 2, 0.003571f, -2, 1 },
  { 0, 20.650000f, -2, -1 },
  { 2, 0.003571f, 1, 16 },
  { 0, 21.900001f, 1, -1 },
  { 2, 0.001328f, 1, 5 },
  { 2, 0.001238f, 1, 3 },
  { 0, 19.950000f, -2, 1 },
  { 1, 79.950001f, -2, -1 },
  { 1, 79.950001f, -2, -1 },
  { 0, 19.450000f, 1, 2 },
  { 1, 79.950001f, -2, -1 },
  { 0, 19.849999f, 1, 5 },
  { 0, 19.550000f, 1, 2 },
  { 1, 79.950001f, -2, -1 },
  { 0, 19.650001f, -2, 1 },
  { 1, 79.950001f, -2, -1 },
  { 2, 0.001841f, 1, -2 },
  { 1, 79.950001f, -2, -1 },
  { 2, 0.004488f, 1, 15 },
  { 2, 0.003700f, 1, 2 },
  { 0, 22.000000f, -2, -1 },
  { 2, 0.003745f, 1, 2 },
  { 0, 21.750000f, -2, -1 },
  { 1, 78.149998f, 1, 2 },
  { 0, 21.400001f, -2, -1 },
  { 2, 0.004114f, 1, 3 },
  { 0, 20.350000f, 1, -1 },
  { 0, 18.450000f, -1, -2 },
  { 2, 0.004167f, 1, -1 },
  { 2, 0.004164f, 1, 3 },
  { 1, 78.599998f, 1, -1 },
  { 0, 22.700000f, -2, -1 },
  { 1, 84.900002f, -2, -1 },
  { 1, 74.750000f, 1, 12 },
  { 1, 73.649998f, 1, 9 },
  { 1, 73.450001f, 1, 4 },
  { 0, 23.200000f, 1, -1 },
  { 1, 73.149998f, -2, 1 },
  { 2, 0.008855f, -2, -1 },
  { 0, 18.550000f, 1, 2 },
  { 2, 0.010729f, -2, -1 },
  { 0, 18.950000f, 1, -2 },
  { 2, 0.008855f, -2, -1 },
  { 2, 0.009050f, 1, -1 },
  { 0, 23.200000f, -2, -1 },
  { 0, 21.650000f, 1, -1 },
  { 2, 0.009646f, -2, -1 },
  { 0, 20.750000f, 1, -1 },
  { 2, 0.009050f, 1, -1 },
  { 2, 0.001328f, 1, 3 },
  { 2, 0.001222f, -2, 1 },
  { 1, 79.950001f, -2, -1 },
  { 2, 0.002228f, 1, 2 },
  { 1, 79.950001f, -2, -1 },
  { 1, 79.950001f, -2, -1 },
  { 0, 20.350000f, 1, -1 },
  { 1, 79.950001f, 1, -1 },
  { 1, 74.750000f, 1, 4 },
  { 0, 18.650001f, 1, 2 },
  { 2, 0.008984f, -2, -1 },
  { 2, 0.009050f, -2, -1 },
  { 0, 18.750000f, 1, -2 },
  { 2, 0.009150f, -2, -1 },
  { 1, 71.950001f, 1, 2 },
  { 0, 20.650000f, -2, -1 },
  { 0, 20.350000f, 1, -1 },
  { 0, 18.650001f, 1, 5 },
  { 2, 0.009050f, 1, -1 },
  { 2, 0.003909f, 1, -2 },
  { 2, 0.003795f, -2, 1 },
  { 1, 79.199997f, -2, -1 },
  { 2, 0.009050f, 1, -1 },
  { 2, 0.001325f, 1, 25 },
  { 2, 0.001211f, -2, 1 },
  { 2, 0.001313f, 1, 19 },
  { 2, 0.001261f, 1, 9 },
  { 0, 19.950000f, 1, 2 },
  { 1, 80.900002f, -2, -1 },
  { 2, 0.001222f, 1, 3 },
  { 0, 20.050000f, 1, -2 },
  { 1, 79.950001f, -2, -1 },
  { 2, 0.001238f, 1, 2 },
  { 1, 79.950001f, -2, -1 },
  { 1, 79.950001f, -2, -1 },
  { 2, 0.001270f, 1, 2 },
  { 1, 80.000000f, -2, -1 },
  { 0, 19.750000f, -2, 1 },
  { 0, 20.050000f, 1, -2 },
  { 2, 0.001283f, -2, 1 },
  { 0, 19.950000f, 1, -1 },
  { 0, 19.849999f, -1, 1 },
  { 2, 0.001305f, -1, 1 },
  { 1, 80.100002f, -2, -1 },
  { 2, 0.001319f, -2, 1 },
  { 0, 19.849999f, 1, 2 },
  { 1, 80.100002f, -2, -1 },
  { 1, 80.049999f, -2, -1 },
  { 1, 79.950001f, -2, -1 },
  { 2, 0.003745f, 1, 16 },
  { 2, 0.003571f, 1, 3 },
  { 1, 79.950001f, 1, -1 },
  { 0, 21.900001f, -2, -1 },
  { 1, 69.500000f, 1, 8 },
  { 2, 0.003744f, 1, -2 },
  { 1, 24.700000f, 1, 2 },
  { 2, 0.003641f, -2, -1 },
  { 1, 61.150000f, -1, 1 },
  { 1, 61.250000f, 1, 2 },
  { 2, 0.003687f, -1, -2 },
  { 0, 22.400001f, -2, -1 },
  { 2, 0.003744f, 1, -2 },
  { 1, 76.750000f, 1, 2 },
  { 0, 21.750000f, -2, -1 },
  { 0, 21.600000f, -2, -1 },
  { 2, 0.004957f, 1, 22 },
  { 1, 72.450001f, 1, 19 },
  { 2, 0.004956f, 1, -2 },
  { 2, 0.004581f, 1, 15 },
  { 2, 0.004114f, 1, 12 },
  { 1, 26.050000f, 1, 4 },
  { 1, 25.200001f, 1, -2 },
  { 2, 0.004034f, 1, -1 },
  { 1, 18.650000f, -1, -2 },
  { 1, 61.250000f, 1, 6 },
  { 2, 0.003778f, 1, 4 },
  { 1, 53.750000f, -1, 1 },
  { 1, 53.850000f, 1, -1 },
  { 0, 17.300000f, -2, -1 },
  { 0, 11.950000f, -2, -1 },
  { 0, 20.750000f, -2, -1 },
  { 2, 0.004117f, -2, 1 },
  { 0, 20.950000f, -2, -1 },
  { 2, 0.004878f, 1, -1 },
  { 0, 20.200000f, -2, -1 },
  { 0, 21.000000f, 1, -1 },
  { 1, 80.549999f, -2, -1 },
  { 0, 20.300000f, 1, -1 },
  { 0, 18.650001f, 1, 2 },
  { 2, 0.009050f, -2, -1 },
  { 1, 74.750000f, 1, 21 },
  { 0, 19.150001f, 1, -2 },
  { 1, 74.549999f, 1, 10 },
  { 0, 19.050000f, 1, 8 },
  { 1, 73.649998f, 1, 2 },
  { 2, 0.008808f, -2, -1 },
  { 1, 73.950001f, 1, 4 },
  { 1, 73.750000f, 1, 2 },
  { 2, 0.008923f, -2, -1 },
  { 2, 0.009050f, -2, -1 },
  { 2, 0.009050f, -2, -1 },
  { 2, 0.009102f, -2, -1 },
  { 0, 18.849999f, 1, 6 },
  { 0, 18.750000f, 1, 4 },
  { 1, 74.649998f, 1, 2 },
  { 2, 0.010170f, -2, -1 },
  { 2, 0.009474f, -2, -1 },
  { 2, 0.010188f, -2, -1 },
  { 0, 19.050000f, 1, 2 },
  { 2, 0.009284f, -2, -1 },
  { 2, 0.009647f, -2, -1 },
  { 2, 0.009580f, -2, -1 },
  { 1, 71.850002f, 1, 4 },
  { 2, 0.003541f, -2, 1 },
  { 2, 0.008243f, 1, -2 },
  { 0, 20.650000f, -2, -1 },
  { 0, 20.600000f, 1, -1 },
  { 2, 0.009050f, 1, -1 },
  { 2, 0.001325f, 1, 2 },
  { 1, 79.950001f, -2, -1 },
  { 0, 18.450000f, 1, 3 },
  { 2, 0.003778f, -2, 1 },
  { 1, 81.549999f, -2, -1 },
  { 1, 79.950001f, -2, -1 },
  { 0, 20.600000f, 1, -1 },
  { 0, 18.750000f, 1, 17 },
  { 0, 18.650001f, 1, 8 },
  { 1, 73.649998f, 1, 2 },
  { 2, 0.010331f, -2, -1 },
  { 0, 18.400000f, 1, 4 },
  { 2, 0.010747f, 1, -1 },
  { 2, 0.003909f, 1, -2 },
  { 2, 0.003891f, -2, -1 },
  { 2, 0.009050f, -2, -1 },
  { 1, 73.850002f, 1, 3 },
  { 1, 73.649998f, -2, 1 },
  { 2, 0.010845f, -2, -1 },
  { 1, 74.649998f, 1, 2 },
  { 2, 0.009809f, -2, -1 },
  { 1, 74.750000f, 1, 2 },
  { 2, 0.010650f, -2, -1 },
  { 2, 0.009433f, -2, -1 },
  { 0, 18.950000f, 1, 2 },
  { 2, 0.009050f, -2, -1 },
  { 0, 20.350000f, 1, 3 },
  { 1, 79.950001f, 1, -1 },
  { 2, 0.009033f, -2, -1 },
  { 1, 83.700001f, -2, -1 },
  { 1, 71.850002f, 1, 53 },
  { 2, 0.003571f, 1, 3 },
  { 2, 0.003547f, -2, 1 },
  { 2, 0.003568f, -1, -2 },
  { 1, 26.049999f, 1, 4 },
  { 1, 19.600000f, -1, 1 },
  { 1, 24.250000f, -2, 1 },
  { 0, 21.650001f, -2, -1 },
  { 2, 0.008109f, 1, -2 },
  { 1, 71.649998f, 1, 43 },
  { 2, 0.003759f, 1, 7 },
  { 2, 0.003744f, 1, 2 },
  { 0, 15.050000f, -2, -1 },
  { 2, 0.003745f, -2, 1 },
  { 1, 65.549999f, -1, 1 },
  { 2, 0.003752f, -1, 1 },
  { 1, 65.700001f, -2, -1 },
  { 1, 60.350000f, 1, 2 },
  { 0, 20.450000f, -2, -1 },
  { 2, 0.005779f, 1, -2 },
  { 1, 64.649998f, 1, 31 },
  { 1, 64.549999f, 1, 29 },
  { 2, 0.003919f, 1, 5 },
  { 2, 0.003917f, 1, -2 },
  { 2, 0.003884f, 1, 2 },
  { 0, 21.900001f, -2, -1 },
  { 0, 18.700000f, -2, -1 },
  { 2, 0.004815f, 1, 22 },
  { 1, 62.549999f, 1, 9 },
  { 2, 0.004114f, 1, 2 },
  { 0, 14.200000f, -2, -1 },
  { 2, 0.004117f, -2, 1 },
  { 1, 60.750000f, 1, 2 },
  { 0, 12.150000f, -2, -1 },
  { 2, 0.004488f, 1, 2 },
  { 0, 21.050000f, -2, -1 },
  { 0, 21.400000f, -2, -1 },
  { 2, 0.004470f, 1, 9 },
  { 1, 62.650000f, 1, 3 },
  { 2, 0.004184f, 1, -1 },
  { 2, 0.004181f, -1, -2 },
  { 2, 0.004324f, 1, 3 },
  { 2, 0.004066f, 1, -1 },
  { 0, 21.900000f, -2, -1 },
  { 1, 63.250000f, 1, -1 },
  { 2, 0.004326f, -2, -1 },
  { 1, 62.750000f, 1, 2 },
  { 0, 21.450000f, -2, -1 },
  { 0, 21.799999f, -2, -1 },
  { 0, 14.300000f, -2, -1 },
  { 0, 21.600000f, -2, -1 },
  { 0, 20.650000f, -2, -1 },
  { 0, 22.000000f, -2, -1 },
  { 2, 0.003571f, 1, 3 },
  { 0, 21.900001f, 1, -1 },
  { 1, 79.950001f, -2, -1 },
  { 0, 20.150001f, 1, 20 },
  { 0, 18.650001f, 1, 6 },
  { 2, 0.009050f, 1, -1 },
  { 2, 0.003909f, 1, 2 },
  { 1, 79.799999f, -2, -1 },
  { 0, 17.800000f, 1, -2 },
  { 0, 17.600000f, -2, -1 },
  { 1, 74.750000f, 1, 6 },
  { 0, 19.050000f, 1, 2 },
  { 2, 0.009050f, -2, -1 },
  { 1, 74.049999f, 1, 2 },
  { 2, 0.009541f, -2, -1 },
  { 2, 0.009102f, -2, -1 },
  { 1, 74.950001f, 1, 5 },
  { 0, 18.849999f, 1, -2 },
  { 0, 18.750000f, -2, 1 },
  { 1, 74.850002f, -2, 1 },
  { 2, 0.009064f, -2, -1 },
  { 0, 18.750000f, 1, -2 },
  { 2, 0.009433f, -2, -1 },
  { 2, 0.003701f, 1, -1 },
  { 2, 0.003699f, -1, 1 },
  { 1, 76.450001f, 1, -1 },
  { 0, 22.050000f, -2, -1 },
  { 1, 71.850002f, 1, 4 },
  { 2, 0.003571f, -2, 1 },
  { 2, 0.008243f, 1, -2 },
  { 0, 20.650000f, -2, -1 },
  { 2, 0.003571f, 1, 20 },
  { 0, 21.900001f, 1, -1 },
  { 2, 0.001325f, 1, 15 },
  { 2, 0.001261f, 1, 2 },
  { 1, 79.950001f, -2, -1 },
  { 2, 0.001270f, 1, 2 },
  { 1, 79.900002f, -2, -1 },
  { 0, 19.750000f, -2, 1 },
  { 2, 0.001305f, 1, 2 },
  { 0, 20.000000f, -1, -2 },
  { 2, 0.001317f, 1, 4 },
  { 0, 19.849999f, -1, 1 },
  { 0, 19.950000f, 1, -1 },
  { 1, 80.100002f, -2, -1 },
  { 0, 19.849999f, 1, 2 },
  { 1, 80.100002f, -2, -1 },
  { 1, 80.049999f, -2, -1 },
  { 0, 19.450000f, 1, 2 },
  { 1, 79.950001f, -2, -1 },
  { 1, 79.950001f, -2, -1 },
  { 1, 78.149998f, 1, 42 },
  { 1, 76.750000f, 1, 3 },
  { 2, 0.009050f, 1, -1 },
  { 0, 21.350000f, -2, -1 },
  { 2, 0.004405f, 1, 30 },
  { 2, 0.003744f, 1, 4 },
  { 2, 0.003700f, 1, 2 },
  { 0, 21.600000f, -2, -1 },
  { 0, 21.750000f, -2, -1 },
  { 1, 77.049999f, 1, 2 },
  { 0, 21.750000f, -2, -1 },
  { 2, 0.004169f, 1, 22 },
  { 2, 0.003812f, 1, 20 },
  { 1, 77.350002f, 1, 6 },
  { 1, 77.149998f, 1, 4 },
  { 2, 0.003745f, -2, 1 },
  { 2, 0.003778f, -1, 1 },
  { 0, 21.700000f, -2, -1 },
  { 0, 21.700000f, -2, -1 },
  { 1, 77.850002f, 1, 11 },
  { 2, 0.003745f, -2, 1 },
  { 2, 0.003778f, -1, 1 },
  { 1, 77.549999f, 1, 2 },
  { 0, 21.750000f, -2, -1 },
  { 1, 77.750000f, 1, 5 },
  { 1, 77.649998f, 1, -1 },
  { 2, 0.003803f, 1, -1 },
  { 2, 0.003797f, 1, -2 },
  { 2, 0.003782f, -2, -1 },
  { 0, 21.750000f, -2, -1 },
  { 2, 0.003800f, -1, 1 },
  { 0, 21.950000f, -2, -1 },
  { 0, 21.850000f, -2, -1 },
  { 0, 22.800000f, -2, -1 },
  { 1, 77.750000f, 1, 7 },
  { 1, 77.549999f, 1, 2 },
  { 0, 22.800000f, -2, -1 },
  { 2, 0.004566f, 1, 2 },
  { 0, 23.400000f, -2, -1 },
  { 1, 77.649998f, 1, -2 },
  { 0, 23.400000f, -2, -1 },
  { 0, 23.450000f, -2, -1 },
  { 0, 21.550000f, 1, -1 },
  { 2, 0.003850f, -1, 1 },
  { 2, 0.004056f, 1, -2 },
  { 0, 18.350000f, -1, -2 },
  { 1, 71.950001f, 1, 3 },
  { 2, 0.003541f, -2, 1 },
  { 0, 20.650000f, -2, -1 },
  { 0, 20.450001f, 1, -1 },
  { 0, 18.650001f, 1, 9 },
  { 1, 73.649998f, 1, 2 },
  { 2, 0.010236f, -2, -1 },
  { 0, 16.700000f, 1, 4 },
  { 2, 0.010514f, 1, -1 },
  { 2, 0.003891f, -2, 1 },
  { 2, 0.003909f, -1, -2 },
  { 2, 0.008984f, 1, -1 },
  { 1, 83.849998f, -2, -1 },
  { 0, 18.950000f, 1, 7 },
  { 0, 18.750000f, 1, 2 },
  { 2, 0.009938f, -2, -1 },
  { 1, 74.750000f, 1, 2 },
  { 2, 0.009050f, -2, -1 },
  { 0, 18.849999f, 1, -2 },
  { 2, 0.009096f, -2, -1 },
  { 1, 79.950001f, 1, -1 },
  { 2, 0.008987f, -2, -1 },
  { 0, 20.600000f, 1, -1 },
  { 1, 79.950001f, 1, -1 },
  { 2, 0.009050f, -2, -1 },
  { 2, 0.003745f, 1, 37 },
  { 1, 63.350000f, 1, 4 },
  { 2, 0.003571f, 1, 2 },
  { 0, 21.900001f, -2, -1 },
  { 0, 21.700000f, -2, -1 },
  { 0, 21.700001f, 1, -1 },
  { 2, 0.001317f, 1, 2 },
  { 1, 79.950001f, -2, -1 },
  { 2, 0.001325f, 1, 2 },
  { 1, 79.950001f, -2, -1 },
  { 0, 19.450000f, 1, 21 },
  { 2, 0.002228f, 1, 14 },
  { 2, 0.002049f, -2, 1 },
  { 2, 0.002087f, 1, 5 },
  { 0, 19.349999f, 1, 2 },
  { 1, 80.450001f, -2, -1 },
  { 2, 0.002070f, -1, 1 },
  { 1, 79.950001f, -2, -1 },
  { 2, 0.002188f, 1, 4 },
  { 2, 0.002142f, 1, 2 },
  { 1, 80.149998f, -2, -1 },
  { 1, 79.450001f, -2, -1 },
  { 0, 19.349999f, -2, 1 },
  { 2, 0.002211f, -2, 1 },
  { 1, 80.200001f, -2, -1 },
  { 0, 19.250000f, 1, 5 },
  { 0, 19.050000f, -2, 1 },
  { 2, 0.002997f, -2, 1 },
  { 2, 0.003365f, 1, -2 },
  { 1, 80.000000f, -2, -1 },
  { 1, 79.950001f, -2, -1 },
  { 0, 19.650001f, 1, 5 },
  { 0, 19.550000f, 1, -2 },
  { 2, 0.001864f, 1, -2 },
  { 2, 0.001841f, -2, 1 },
  { 1, 88.950001f, -2, -1 },
  { 1, 79.950001f, -2, -1 },
  { 0, 20.150001f, 1, -1 },
  { 1, 74.750000f, 1, 2 },
  { 2, 0.009050f, -2, -1 },
  { 1, 82.099998f, 1, -1 },
  { 0, 18.650001f, 1, 3 },
  { 1, 75.200001f, 1, -2 },
  { 2, 0.008668f, -2, -1 },
  { 0, 18.849999f, 1, 2 },
  { 2, 0.009862f, -2, -1 },
  { 2, 0.009202f, -2, -1 },
  { 1, 71.950001f, 1, 42 },
  { 1, 33.200000f, 1, 2 },
  { 0, 21.800000f, -2, -1 },
  { 1, 71.850002f, 1, 38 },
  { 1, 71.250000f, 1, 34 },
  { 1, 60.450001f, 1, 32 },
  { 1, 55.450001f, 1, 20 },
  { 2, 0.003280f, -2, 1 },
  { 1, 52.150000f, 1, 11 },
  { 1, 47.950001f, 1, 7 },
  { 1, 47.850000f, 1, 5 },
  { 2, 0.004517f, 1, -1 },
  { 2, 0.004510f, -1, 1 },
  { 1, 47.350000f, -1, 1 },
  { 0, 15.500000f, -2, -1 },
  { 0, 12.300000f, -2, -1 },
  { 1, 48.850000f, 1, 2 },
  { 0, 11.950000f, -2, -1 },
  { 0, 20.100000f, -2, -1 },
  { 1, 53.250000f, 1, 4 },
  { 2, 0.003634f, -2, 1 },
  { 2, 0.004585f, 1, -1 },
  { 0, 17.950000f, -2, -1 },
  { 1, 54.549999f, -1, 1 },
  { 2, 0.004002f, 1, -1 },
  { 0, 12.700000f, -2, -1 },
  { 1, 56.450001f, 1, 10 },
  { 1, 56.350000f, 1, 6 },
  { 2, 0.003447f, -2, 1 },
  { 1, 55.549999f, 1, 3 },
  { 2, 0.005788f, -1, 1 },
  { 0, 17.350000f, -2, -1 },
  { 0, 17.400000f, -2, -1 },
  { 2, 0.003192f, -2, 1 },
  { 2, 0.003984f, 1, -1 },
  { 0, 13.600000f, -2, -1 },
  { 0, 20.849999f, -2, -1 },
  { 0, 21.000000f, -2, -1 },
  { 1, 71.350002f, 1, 2 },
  { 0, 21.800000f, -2, -1 },
  { 0, 22.000000f, -2, -1 },
  { 2, 0.003436f, -2, -1 },
  { 1, 78.450001f, 1, 29 },
  { 2, 0.003571f, 1, 6 },
  { 2, 0.003535f, -2, 1 },
  { 1, 76.850002f, 1, 3 },
  { 1, 76.750000f, -2, 1 },
  { 2, 0.003564f, -1, -2 },
  { 0, 21.800000f, -2, -1 },
  { 2, 0.009050f, 1, -1 },
  { 2, 0.004571f, 1, 10 },
  { 1, 76.750000f, 1, 8 },
  { 1, 73.250000f, 1, 2 },
  { 0, 21.200001f, -2, -1 },
  { 1, 73.850002f, 1, 4 },
  { 2, 0.004063f, 1, 2 },
  { 0, 22.100000f, -2, -1 },
  { 0, 21.950000f, -2, -1 },
  { 0, 21.350000f, -2, -1 },
  { 0, 21.650001f, -2, -1 },
  { 1, 77.850002f, 1, 6 },
  { 1, 72.350002f, 1, 3 },
  { 2, 0.004653f, -2, 1 },
  { 2, 0.004742f, -1, -2 },
  { 1, 74.850002f, -2, 1 },
  { 0, 23.400000f, -2, -1 },
  { 1, 78.350002f, 1, -2 },
  { 1, 78.250000f, 1, 3 },
  { 1, 78.149998f, 1, -2 },
  { 0, 23.450000f, -2, -1 },
  { 0, 22.800000f, -2, -1 },
  { 1, 79.950001f, 1, -1 },
  { 2, 0.003567f, -2, 1 },
  { 2, 0.004514f, 1, -2 },
  { 1, 78.649998f, 1, 5 },
  { 1, 78.549999f, 1, 2 },
  { 0, 21.300000f, -2, -1 },
  { 2, 0.003812f, -1, 1 },
  { 0, 21.850000f, -2, -1 },
  { 0, 21.050000f, -2, -1 },
  { 0, 20.600000f, 1, -1 },
  { 2, 0.009050f, 1, -1 },
  { 2, 0.001317f, 1, 7 },
  { 0, 19.849999f, 1, 3 },
  { 2, 0.001305f, -2, 1 },
  { 0, 19.750000f, -2, -1 },
  { 0, 19.950000f, 1, 2 },
  { 1, 80.049999f, -2, -1 },
  { 1, 79.950001f, -2, -1 },
  { 0, 20.400000f, 1, 57 },
  { 0, 18.450000f, 1, 6 },
  { 2, 0.003795f, -2, 1 },
  { 2, 0.003812f, -1, 1 },
  { 0, 17.400000f, 1, 2 },
  { 1, 80.199997f, -2, -1 },
  { 1, 82.450001f, -2, -1 },
  { 0, 20.150001f, 1, 48 },
  { 2, 0.001325f, 1, 3 },
  { 0, 19.750000f, -2, 1 },
  { 1, 79.950001f, -2, -1 },
  { 2, 0.002909f, 1, 41 },
  { 2, 0.002785f, 1, 26 },
  { 0, 19.450000f, 1, 13 },
  { 0, 19.349999f, 1, 5 },
  { 2, 0.002148f, 1, -2 },
  { 0, 19.250000f, -2, 1 },
  { 2, 0.002070f, -2, 1 },
  { 1, 79.949997f, -2, -1 },
  { 2, 0.002199f, 1, 3 },
  { 2, 0.002044f, -2, 1 },
  { 1, 79.950001f, -2, -1 },
  { 2, 0.002598f, -2, 1 },
  { 2, 0.002709f, 1, 2 },
  { 1, 79.849998f, -2, -1 },
  { 1, 78.199997f, -2, -1 },
  { 2, 0.001954f, 1, 9 },
  { 0, 19.849999f, 1, 7 },
  { 0, 19.550000f, 1, 2 },
  { 1, 88.950001f, -2, -1 },
  { 0, 19.750000f, -2, 1 },
  { 2, 0.001864f, -2, 1 },
  { 2, 0.001883f, 1, -2 },
  { 1, 87.549999f, -2, -1 },
  { 1, 79.950001f, -2, -1 },
  { 2, 0.002591f, 1, -2 },
  { 2, 0.002577f, -2, 1 },
  { 1, 79.700001f, -2, -1 },
  { 2, 0.002801f, 1, 6 },
  { 0, 19.450000f, 1, -2 },
  { 0, 19.250000f, -2, 1 },
  { 0, 19.349999f, 1, 2 },
  { 1, 78.100002f, -2, -1 },
  { 1, 78.450001f, -2, -1 },
  { 0, 19.450000f, 1, -2 },
  { 0, 19.250000f, -2, 1 },
  { 2, 0.002876f, 1, 2 },
  { 1, 79.250000f, -2, -1 },
  { 2, 0.002885f, 1, 2 },
  { 1, 78.049999f, -2, -1 },
  { 2, 0.002897f, -2, 1 },
  { 1, 79.149998f, -2, -1 },
  { 2, 0.003297f, 1, -2 },
  { 0, 19.250000f, 1, -2 },
  { 1, 79.849998f, -2, -1 },
  { 0, 20.250000f, 1, -2 },
  { 2, 0.003614f, -2, -1 },
  { 2, 0.003894f, -2, -1 },
  { 1, 71.850002f, 1, 11 },
  { 1, 35.999999f, 1, 9 },
  { 1, 19.850000f, 1, 2 },
  { 1, 1.900000f, -2, -1 },
  { 2, 0.003617f, -2, 1 },
  { 1, 24.250000f, 1, 2 },
  { 0, 21.900000f, -2, -1 },
  { 1, 25.400000f, 1, 2 },
  { 1, 24.750000f, -1, -2 },
  { 0, 21.300000f, -2, -1 },
  { 0, 20.500000f, -2, -1 },
  { 2, 0.003571f, 1, 3 },
  { 0, 21.900001f, 1, -1 },
  { 1, 79.950001f, -2, -1 },
  { 1, 78.149998f, 1, 18 },
  { 0, 21.200000f, 1, -1 },
  { 1, 74.750000f, 1, 12 },
  { 0, 18.650001f, 1, 2 },
  { 2, 0.009050f, -2, -1 },
  { 0, 18.950000f, 1, 8 },
  { 1, 73.649998f, 1, 2 },
  { 2, 0.008793f, -2, -1 },
  { 0, 18.750000f, 1, 2 },
  { 2, 0.009938f, -2, -1 },
  { 0, 18.849999f, 1, 2 },
  { 2, 0.008971f, -2, -1 },
  { 2, 0.009050f, -2, -1 },
  { 2, 0.009017f, -2, -1 },
  { 1, 75.250000f, 1, -2 },
  { 0, 18.650001f, 1, 2 },
  { 2, 0.008606f, -2, -1 },
  { 2, 0.009580f, -2, -1 },
  { 2, 0.004570f, 1, 17 },
  { 2, 0.004063f, 1, 10 },
  { 2, 0.003917f, 1, 4 },
  { 0, 21.550000f, 1, -1 },
  { 2, 0.003891f, 1, -1 },
  { 0, 18.450000f, -1, -2 },
  { 2, 0.003919f, -2, 1 },
  { 2, 0.004016f, 1, -1 },
  { 2, 0.004014f, 1, -2 },
  { 2, 0.003964f, -1, 1 },
  { 1, 79.150002f, -2, -1 },
  { 2, 0.004066f, 1, 2 },
  { 1, 81.700001f, -2, -1 },
  { 2, 0.004167f, 1, 3 },
  { 2, 0.004164f, 1, -2 },
  { 0, 19.800000f, -2, -1 },
  { 0, 19.600000f, -2, -1 },
  { 0, 21.100000f, -2, -1 },
  { 1, 71.950001f, 1, 2 },
  { 0, 20.650000f, -2, -1 },
  { 2, 0.003571f, 1, 3 },
  { 1, 79.950001f, 1, -1 },
  { 0, 21.900001f, -2, -1 },
  { 0, 20.150001f, 1, 8 },
  { 1, 74.750000f, 1, 5 },
  { 1, 73.649998f, 1, 3 },
  { 0, 18.950000f, 1, -2 },
  { 2, 0.008855f, -2, -1 },
  { 2, 0.009050f, -2, -1 },
  { 1, 80.649998f, 1, -1 },
  { 2, 0.009580f, -2, -1 },
  { 2, 0.003701f, 1, -1 },
  { 1, 76.450001f, 1, -1 },
  { 0, 22.050000f, -2, -1 },
  { 2, 0.003745f, 1, 69 },
  { 1, 66.450001f, 1, 14 },
  { 2, 0.003541f, -2, 1 },
  { 2, 0.003744f, 1, -2 },
  { 1, 25.500000f, 1, 3 },
  { 2, 0.003641f, -2, 1 },
  { 2, 0.003684f, -1, -2 },
  { 1, 62.049999f, -1, 1 },
  { 2, 0.003658f, -1, 1 },
  { 2, 0.003665f, 1, 2 },
  { 0, 13.550000f, -2, -1 },
  { 1, 62.450001f, 1, -1 },
  { 2, 0.003700f, -1, 1 },
  { 1, 62.350000f, -1, 1 },
  { 2, 0.003703f, -2, -1 },
  { 2, 0.003571f, 1, 30 },
  { 2, 0.001313f, 1, 10 },
  { 2, 0.001238f, 1, 8 },
  { 2, 0.001211f, -2, 1 },
  { 0, 19.950000f, -2, 1 },
  { 2, 0.001222f, 1, 2 },
  { 1, 79.950001f, -2, -1 },
  { 0, 20.050000f, 1, 2 },
  { 1, 79.950001f, -2, -1 },
  { 1, 79.949997f, -2, -1 },
  { 1, 79.950001f, -2, -1 },
  { 2, 0.003540f, 1, 9 },
  { 2, 0.001328f, 1, 7 },
  { 0, 19.750000f, -2, 1 },
  { 2, 0.001325f, 1, 4 },
  { 0, 19.849999f, 1, 2 },
  { 1, 79.900002f, -2, -1 },
  { 1, 80.049999f, -2, -1 },
  { 1, 79.600002f, -2, -1 },
  { 1, 79.950001f, -2, -1 },
  { 1, 77.049999f, 1, 3 },
  { 1, 76.750000f, -2, 1 },
  { 0, 21.750000f, -2, -1 },
  { 1, 77.750000f, 1, 6 },
  { 1, 77.350002f, 1, 2 },
  { 0, 21.750000f, -2, -1 },
  { 2, 0.003568f, 1, -2 },
  { 2, 0.003549f, 1, -1 },
  { 2, 0.003545f, -1, -2 },
  { 2, 0.003562f, -1, -2 },
  { 2, 0.003744f, 1, -2 },
  { 1, 76.750000f, 1, 22 },
  { 2, 0.003701f, 1, 19 },
  { 1, 75.850002f, 1, 2 },
  { 0, 21.800000f, -2, -1 },
  { 1, 76.450001f, 1, 15 },
  { 1, 76.049999f, 1, 3 },
  { 2, 0.003700f, 1, -2 },
  { 2, 0.003662f, -2, -1 },
  { 1, 76.149998f, 1, 5 },
  { 2, 0.003700f, 1, -2 },
  { 2, 0.003660f, -2, 1 },
  { 2, 0.003691f, 1, -1 },
  { 0, 21.750000f, -2, -1 },
  { 2, 0.003700f, 1, -2 },
  { 1, 76.350002f, 1, 4 },
  { 1, 76.250000f, 1, 2 },
  { 2, 0.003671f, -2, -1 },
  { 0, 21.800000f, -2, -1 },
  { 0, 22.100000f, -2, -1 },
  { 0, 21.750000f, -2, -1 },
  { 2, 0.003732f, -1, 1 },
  { 2, 0.003735f, -2, -1 },
  { 0, 21.600000f, -2, -1 },
  { 1, 72.549999f, 1, 10 },
  { 1, 72.250000f, 1, 2 },
  { 0, 20.650000f, -2, -1 },
  { 1, 72.350002f, 1, 2 },
  { 0, 21.950000f, -2, -1 },
  { 2, 0.004423f, 1, 3 },
  { 2, 0.004250f, 1, -1 },
  { 2, 0.003899f, -1, -2 },
  { 1, 72.450001f, 1, -2 },
  { 2, 0.004682f, -2, -1 },
  { 2, 0.004407f, 1, 22 },
  { 2, 0.003778f, 1, 7 },
  { 1, 75.850002f, 1, 5 },
  { 2, 0.003769f, 1, -1 },
  { 1, 75.299999f, -2, 1 },
  { 1, 75.549999f, -1, 1 },
  { 2, 0.003766f, -1, -2 },
  { 0, 21.150001f, -2, -1 },
  { 1, 78.350002f, 1, 2 },
  { 0, 21.000000f, -2, -1 },
  { 2, 0.004167f, 1, -1 },
  { 2, 0.004164f, 1, 10 },
  { 1, 78.649998f, 1, 7 },
  { 1, 78.450001f, 1, 2 },
  { 0, 21.350000f, -2, -1 },
  { 1, 78.549999f, 1, 2 },
  { 0, 21.350000f, -2, -1 },
  { 2, 0.003799f, -1, 1 },
  { 0, 21.850000f, -2, -1 },
  { 1, 78.950001f, 1, -1 },
  { 0, 21.350000f, -2, -1 },
  { 1, 84.900002f, -2, -1 },
  { 1, 77.850002f, 1, 14 },
  { 0, 23.300000f, 1, -1 },
  { 0, 18.750000f, 1, 7 },
  { 0, 18.550000f, 1, 3 },
  { 0, 5.850000f, -1, 1 },
  { 2, 0.009362f, -2, -1 },
  { 0, 18.650001f, 1, 2 },
  { 2, 0.009118f, -2, -1 },
  { 2, 0.009938f, -2, -1 },
  { 0, 19.050000f, 1, 4 },
  { 0, 18.950000f, 1, 2 },
  { 2, 0.009050f, -2, -1 },
  { 2, 0.009086f, -2, -1 },
  { 2, 0.008855f, -2, -1 },
  { 2, 0.004566f, 1, 2 },
  { 0, 21.650000f, -2, -1 },
  { 1, 85.049999f, 1, -1 },
  { 0, 23.400000f, -2, -1 },
  { 0, 20.350000f, 1, -1 },
  { 2, 0.009050f, 1, -1 },
  { 2, 0.001305f, 1, 11 },
  { 0, 19.849999f, -2, 1 },
  { 2, 0.001255f, 1, 7 },
  { 2, 0.001238f, 1, 4 },
  { 0, 19.950000f, -2, 1 },
  { 0, 20.050000f, 1, -2 },
  { 1, 79.950001f, -2, -1 },
  { 0, 19.950000f, -2, 1 },
  { 1, 79.950001f, -2, -1 },
  { 2, 0.001275f, 1, -1 },
  { 1, 79.950001f, -2, -1 },
  { 1, 79.950001f, -2, -1 },
  { 0, 20.600000f, 1, -1 },
  { 1, 79.950001f, 1, -1 },
  { 0, 18.650001f, 1, 2 },
  { 2, 0.009050f, -2, -1 },
  { 1, 74.750000f, 1, 33 },
  { 1, 73.649998f, 1, 12 },
  { 1, 73.450001f, 1, 3 },
  { 0, 18.849999f, 1, -2 },
  { 2, 0.010173f, -2, -1 },
  { 0, 18.950000f, 1, -2 },
  { 0, 18.849999f, 1, 4 },
  { 1, 73.549999f, -2, 1 },
  { 0, 18.750000f, -2, 1 },
  { 2, 0.009163f, -2, -1 },
  { 1, 73.549999f, 1, 2 },
  { 2, 0.008608f, -2, -1 },
  { 2, 0.008597f, -2, -1 },
  { 0, 19.050000f, 1, 11 },
  { 1, 74.250000f, 1, 9 },
  { 0, 18.750000f, 1, 5 },
  { 1, 73.850002f, 1, 3 },
  { 1, 73.750000f, 1, -2 },
  { 2, 0.010781f, -2, -1 },
  { 2, 0.009880f, -2, -1 },
  { 1, 73.950001f, 1, 2 },
  { 2, 0.009050f, -2, -1 },
  { 2, 0.009050f, -2, -1 },
  { 2, 0.008987f, -2, -1 },
  { 0, 19.150001f, 1, -2 },
  { 1, 74.350002f, 1, 5 },
  { 1, 74.250000f, 1, 3 },
  { 1, 73.850002f, -2, 1 },
  { 2, 0.009443f, -2, -1 },
  { 2, 0.008923f, -2, -1 },
  { 1, 74.649998f, 1, 2 },
  { 2, 0.008855f, -2, -1 },
  { 2, 0.009467f, -2, -1 },
  { 1, 75.049999f, 1, -2 },
  { 0, 18.849999f, 1, -2 },
  { 2, 0.009862f, -2, -1 },
  { 2, 0.003745f, 1, 41 },
  { 1, 67.049999f, 1, 2 },
  { 0, 21.850000f, -2, -1 },
  { 2, 0.003571f, 1, 3 },
  { 0, 21.900001f, 1, -1 },
  { 1, 79.950001f, -2, -1 },
  { 1, 76.850002f, 1, 18 },
  { 2, 0.003700f, 1, 12 },
  { 2, 0.003658f, 1, 3 },
  { 2, 0.003586f, -1, 1 },
  { 0, 21.800000f, -2, -1 },
  { 2, 0.003690f, 1, 7 },
  { 1, 75.549999f, 1, 2 },
  { 2, 0.003686f, -1, -2 },
  { 2, 0.003689f, 1, -2 },
  { 1, 76.149998f, 1, -1 },
  { 1, 76.049999f, -1, 1 },
  { 0, 17.250000f, -2, -1 },
  { 0, 22.000000f, -2, -1 },
  { 1, 76.549999f, 1, 4 },
  { 2, 0.003740f, 1, -2 },
  { 1, 76.149998f, -2, 1 },
  { 0, 21.750000f, -2, -1 },
  { 0, 21.750000f, -2, -1 },
  { 1, 77.350002f, 1, 15 },
  { 2, 0.003744f, 1, -2 },
  { 1, 77.250000f, 1, 12 },
  { 2, 0.003700f, 1, 4 },
  { 1, 77.149998f, 1, 2 },
  { 0, 21.700000f, -2, -1 },
  { 0, 21.700000f, -2, -1 },
  { 2, 0.003703f, -2, 1 },
  { 1, 76.950001f, 1, 3 },
  { 2, 0.003732f, -1, 1 },
  { 2, 0.003735f, -2, -1 },
  { 2, 0.003733f, -1, 1 },
  { 1, 77.149998f, -1, 1 },
  { 2, 0.003735f, -2, -1 },
  { 0, 21.750000f, -2, -1 },
  { 2, 0.003744f, 1, -2 },
  { 0, 21.800000f, -2, -1 },
  { 1, 72.549999f, 1, 10 },
  { 2, 0.008135f, 1, -2 },
  { 1, 72.149998f, 1, 4 },
  { 2, 0.004957f, 1, 2 },
  { 0, 20.650000f, -2, -1 },
  { 0, 20.150001f, -2, -1 },
  { 1, 72.450001f, 1, 2 },
  { 0, 22.000000f, -2, -1 },
  { 2, 0.003911f, -1, 1 },
  { 0, 23.300000f, -2, -1 },
  { 2, 0.004488f, 1, 14 },
  { 1, 78.149998f, 1, 2 },
  { 0, 21.000000f, -2, -1 },
  { 2, 0.003881f, 1, 4 },
  { 1, 78.649998f, 1, -1 },
  { 2, 0.003812f, -1, 1 },
  { 1, 78.549999f, -1, -2 },
  { 2, 0.003884f, -2, 1 },
  { 1, 78.549999f, 1, 4 },
  { 1, 78.250000f, 1, 2 },
  { 0, 23.150000f, -2, -1 },
  { 0, 21.850000f, -2, -1 },
  { 0, 19.750000f, 1, -1 },
  { 0, 18.350000f, -1, -2 },
  { 2, 0.009050f, 1, -1 },
  { 1, 84.950001f, 1, -1 },
  { 0, 23.300000f, -2, -1 },
  { 0, 20.400000f, 1, -1 },
  { 0, 18.650001f, 1, 8 },
  { 1, 73.649998f, 1, 3 },
  { 1, 73.549999f, -2, 1 },
  { 2, 0.010331f, -2, -1 },
  { 2, 0.009050f, 1, -1 },
  { 0, 5.600000f, -1, 1 },
  { 0, 18.500000f, 1, -2 },
  { 1, 81.549999f, -2, -1 },
  { 1, 79.950001f, 1, -1 },
  { 0, 18.950000f, 1, 18 },
  { 1, 73.649998f, 1, 7 },
  { 1, 73.450001f, 1, 2 },
  { 2, 0.010188f, -2, -1 },
  { 1, 73.549999f, 1, 3 },
  { 0, 18.849999f, -2, 1 },
  { 2, 0.008608f, -2, -1 },
  { 2, 0.008793f, -2, -1 },
  { 1, 74.750000f, 1, 6 },
  { 0, 18.750000f, 1, 2 },
  { 2, 0.009809f, -2, -1 },
  { 0, 18.849999f, 1, 2 },
  { 2, 0.008855f, -2, -1 },
  { 2, 0.009050f, -2, -1 },
  { 1, 75.049999f, 1, -2 },
  { 0, 18.849999f, 1, -2 },
  { 0, 18.750000f, -2, 1 },
  { 2, 0.009096f, -2, -1 },
  { 2, 0.009086f, -2, -1 },
  { 0, 20.600000f, 1, -1 },
  { 0, 18.750000f, 1, 3 },
  { 2, 0.009050f, 1, -1 },
  { 1, 83.849998f, -2, -1 },
  { 1, 79.950001f, 1, -1 },
  { 2, 0.009050f, -2, -1 },
  { 1, 71.850002f, 1, 2 },
  { 0, 20.600000f, -2, -1 },
  { 0, 20.350000f, 1, -1 },
  { 0, 18.650001f, 1, 13 },
  { 0, 18.550000f, 1, 9 },
  { 2, 0.009362f, 1, -1 },
  { 2, 0.004056f, 1, -2 },
  { 0, 5.650000f, 1, 2 },
  { 2, 0.003186f, -2, -1 },
  { 0, 18.349999f, 1, 3 },
  { 0, 16.700000f, -2, 1 },
  { 1, 83.300003f, -2, -1 },
  { 2, 0.003608f, -2, -1 },
  { 1, 73.750000f, 1, 2 },
  { 2, 0.009118f, -2, -1 },
  { 2, 0.008984f, -2, -1 },
  { 1, 79.950001f, 1, -1 },
  { 1, 74.750000f, 1, 11 },
  { 0, 18.950000f, 1, 7 },
  { 1, 73.649998f, 1, 5 },
  { 1, 73.450001f, 1, 3 },
  { 1, 73.250000f, -2, 1 },
  { 2, 0.010188f, -2, -1 },
  { 2, 0.008793f, -2, -1 },
  { 2, 0.009050f, -2, -1 },
  { 0, 19.150001f, 1, -2 },
  { 1, 73.649998f, -2, 1 },
  { 2, 0.009033f, -2, -1 },
  { 2, 0.009646f, -2, -1 },
  { 1, 71.850002f, 1, 2 },
  { 0, 20.650000f, -2, -1 },
  { 1, 78.450001f, 1, 16 },
  { 1, 76.750000f, 1, 3 },
  { 0, 21.800000f, 1, -1 },
  { 2, 0.009050f, -2, -1 },
  { 1, 77.750000f, 1, 11 },
  { 1, 77.049999f, 1, 9 },
  { 1, 76.850002f, 1, 2 },
  { 0, 21.750000f, -2, -1 },
  { 2, 0.003571f, 1, 2 },
  { 0, 21.900001f, -2, -1 },
  { 2, 0.004322f, 1, 2 },
  { 0, 21.750000f, -2, -1 },
  { 2, 0.004466f, 1, -2 },
  { 0, 23.000000f, -2, -1 },
  { 0, 21.800000f, -2, -1 },
  { 0, 21.900001f, -2, -1 },
  { 1, 79.950001f, 1, -1 },
  { 2, 0.003617f, -2, 1 },
  { 2, 0.004514f, 1, -2 },
  { 2, 0.003881f, 1, 2 },
  { 0, 21.300000f, -2, -1 },
  { 0, 21.850000f, -2, -1 },
  { 1, 71.850002f, 1, 2 },
  { 0, 20.650000f, -2, -1 },
  { 2, 0.003571f, 1, 5 },
  { 0, 21.900001f, 1, -1 },
  { 0, 19.849999f, 1, 2 },
  { 1, 79.950001f, -2, -1 },
  { 1, 79.950001f, -2, -1 },
  { 1, 78.149998f, 1, 60 },
  { 1, 76.750000f, 1, 7 },
  { 0, 21.200000f, 1, -1 },
  { 0, 18.650001f, 1, 4 },
  { 1, 73.649998f, 1, 2 },
  { 2, 0.010236f, -2, -1 },
  { 2, 0.009050f, -2, -1 },
  { 2, 0.009050f, -2, -1 },
  { 2, 0.004407f, 1, 38 },
  { 2, 0.003744f, 1, 18 },
  { 1, 77.950001f, 1, 10 },
  { 1, 77.250000f, 1, 4 },
  { 1, 76.850002f, 1, 2 },
  { 0, 21.700000f, -2, -1 },
  { 0, 21.700000f, -2, -1 },
  { 2, 0.003613f, 1, 4 },
  { 1, 77.850002f, 1, 2 },
  { 0, 21.800000f, -2, -1 },
  { 2, 0.003610f, -1, -2 },
  { 0, 21.600000f, -2, -1 },
  { 2, 0.003668f, 1, 5 },
  { 1, 78.049999f, 1, -2 },
  { 2, 0.003601f, -1, 1 },
  { 2, 0.003626f, -2, 1 },
  { 2, 0.003653f, -1, -2 },
  { 2, 0.003709f, 1, -1 },
  { 2, 0.003700f, -1, -2 },
  { 1, 77.049999f, 1, 4 },
  { 1, 76.850002f, 1, 2 },
  { 0, 21.750000f, -2, -1 },
  { 0, 21.750000f, -2, -1 },
  { 1, 77.649998f, 1, 2 },
  { 0, 21.750000f, -2, -1 },
  { 1, 77.850002f, 1, 2 },
  { 0, 21.850000f, -2, -1 },
  { 2, 0.004173f, 1, 9 },
  { 1, 78.049999f, 1, 7 },
  { 2, 0.003776f, 1, 3 },
  { 1, 77.950001f, -1, 1 },
  { 2, 0.003745f, -2, -1 },
  { 1, 77.950001f, 1, 2 },
  { 0, 23.350000f, -2, -1 },
  { 0, 23.300000f, -2, -1 },
  { 0, 21.850000f, -2, -1 },
  { 1, 77.950001f, -1, 1 },
  { 0, 22.750000f, -2, -1 },
  { 2, 0.004488f, 1, 2 },
  { 0, 22.800000f, -2, -1 },
  { 1, 77.850002f, 1, 11 },
  { 1, 77.649998f, 1, 8 },
  { 2, 0.004543f, 1, 5 },
  { 1, 76.850002f, 1, 2 },
  { 0, 23.050000f, -2, -1 },
  { 1, 77.549999f, -2, 1 },
  { 0, 23.450000f, -2, -1 },
  { 1, 76.850002f, 1, -2 },
  { 0, 23.100000f, -2, -1 },
  { 2, 0.004555f, 1, -2 },
  { 2, 0.004504f, -2, -1 },
  { 0, 23.500000f, -2, -1 },
  { 0, 20.100000f, 1, -1 },
  { 2, 0.004056f, 1, -2 },
  { 0, 18.700000f, -1, -2 },
  { 0, 20.600000f, 1, -1 },
  { 0, 18.650001f, 1, 11 },
  { 1, 73.649998f, 1, 3 },
  { 1, 73.549999f, -2, 1 },
  { 2, 0.010331f, -2, -1 },
  { 1, 74.750000f, 1, 5 },
  { 0, 18.400000f, 1, 2 },
  { 0, 5.850000f, -1, -2 },
  { 0, 18.550000f, -1, 1 },
  { 2, 0.008984f, -2, -1 },
  { 0, 17.600000f, -2, 1 },
  { 1, 82.099998f, -2, -1 },
  { 0, 18.950000f, 1, 2 },
  { 2, 0.009050f, -2, -1 },
  { 1, 79.950001f, 1, -1 },
  { 1, 74.750000f, 1, 3 },
  { 0, 19.150001f, 1, -2 },
  { 2, 0.009017f, -2, -1 },
  { 0, 19.150001f, 1, -2 },
  { 0, 19.050000f, 1, 2 },
  { 2, 0.009506f, -2, -1 },
  { 1, 75.250000f, 1, -2 },
  { 2, 0.009580f, -2, -1 },
  { 2, 0.003745f, 1, 35 },
  { 2, 0.003571f, 1, 28 },
  { 2, 0.001313f, 1, 17 },
  { 2, 0.001261f, 1, 15 },
  { 2, 0.001211f, 1, 5 },
  { 2, 0.001189f, -2, 1 },
  { 0, 19.950000f, -2, 1 },
  { 2, 0.001203f, 1, -2 },
  { 1, 80.000000f, -2, -1 },
  { 2, 0.001238f, 1, 7 },
  { 2, 0.001222f, 1, 4 },
  { 0, 19.950000f, -2, 1 },
  { 0, 20.050000f, 1, -2 },
  { 1, 79.950001f, -2, -1 },
  { 0, 19.950000f, -2, 1 },
  { 1, 79.950001f, -2, -1 },
  { 2, 0.001252f, 1, -2 },
  { 1, 79.950001f, -2, -1 },
  { 1, 79.950001f, -2, -1 },
  { 2, 0.003549f, 1, 9 },
  { 0, 22.100000f, 1, -1 },
  { 2, 0.001325f, 1, 2 },
  { 1, 79.900002f, -2, -1 },
  { 0, 19.450000f, 1, 2 },
  { 1, 79.950001f, -2, -1 },
  { 2, 0.002087f, 1, 2 },
  { 1, 79.950001f, -2, -1 },
  { 1, 79.849998f, -2, -1 },
  { 2, 0.003568f, -1, -2 },
  { 1, 72.650002f, 1, 5 },
  { 2, 0.003744f, 1, -2 },
  { 2, 0.003613f, 1, 2 },
  { 1, 37.550000f, -2, -1 },
  { 0, 21.450000f, -2, -1 },
  { 0, 21.850000f, -2, -1 },
  { 1, 72.549999f, 1, 54 },
  { 2, 0.008135f, 1, -2 },
  { 1, 26.250000f, 1, 6 },
  { 2, 0.004717f, 1, 2 },
  { 0, 21.000000f, -2, -1 },
  { 2, 0.005259f, 1, -1 },
  { 2, 0.004846f, 1, -2 },
  { 1, 14.400000f, -1, -2 },
  { 1, 72.250000f, 1, 36 },
  { 2, 0.004542f, 1, 7 },
  { 2, 0.004510f, 1, 2 },
  { 0, 20.750000f, -2, -1 },
  { 2, 0.004529f, 1, 3 },
  { 1, 53.350000f, 1, -1 },
  { 0, 14.250000f, -2, -1 },
  { 0, 20.400001f, -2, -1 },
  { 2, 0.007679f, 1, 27 },
  { 1, 70.700001f, 1, 24 },
  { 2, 0.004957f, 1, 20 },
  { 1, 68.950001f, 1, 16 },
  { 2, 0.004956f, 1, -2 },
  { 2, 0.004816f, 1, 13 },
  { 2, 0.004816f, 1, -2 },
  { 1, 58.350000f, 1, -1 },
  { 1, 58.250000f, 1, 8 },
  { 1, 58.150000f, 1, 6 },
  { 2, 0.004632f, 1, -1 },
  { 2, 0.004574f, -1, 1 },
  { 1, 57.950001f, 1, 2 },
  { 0, 14.700000f, -2, -1 },
  { 0, 12.600000f, -2, -1 },
  { 0, 13.250000f, -2, -1 },
  { 2, 0.004669f, -1, 1 },
  { 0, 21.900001f, -2, -1 },
  { 0, 13.600000f, -2, -1 },
  { 1, 69.049999f, 1, -1 },
  { 2, 0.004947f, 1, -1 },
  { 2, 0.004933f, -1, -2 },
  { 2, 0.006447f, 1, 2 },
  { 0, 20.150001f, -2, -1 },
  { 0, 13.600000f, -2, -1 },
  { 2, 0.005168f, 1, -2 },
  { 0, 20.750000f, -2, -1 },
  { 1, 57.449999f, -1, -2 },
  { 1, 72.350002f, 1, 4 },
  { 2, 0.004059f, -1, 1 },
  { 2, 0.004293f, -2, 1 },
  { 2, 0.004553f, -1, -2 },
  { 2, 0.004471f, 1, -2 },
  { 1, 72.450001f, 1, 4 },
  { 2, 0.003921f, -1, 1 },
  { 2, 0.004250f, -2, 1 },
  { 0, 23.400000f, -2, -1 },
  { 0, 21.900000f, -2, -1 },
  { 0, 20.150001f, 1, -1 },
  { 1, 74.750000f, 1, 6 },
  { 1, 73.649998f, 1, 4 },
  { 1, 73.549999f, 1, 2 },
  { 2, 0.008855f, -2, -1 },
  { 2, 0.008855f, -2, -1 },
  { 2, 0.009050f, -2, -1 },
  { 0, 18.500000f, 1, 2 },
  { 1, 81.549999f, -2, -1 },
  { 0, 18.750000f, 1, 5 },
  { 0, 18.650001f, 1, 2 },
  { 2, 0.008870f, -2, -1 },
  { 1, 75.250000f, 1, -2 },
  { 2, 0.008839f, -2, -1 },
  { 1, 75.250000f, 1, -2 },
  { 0, 19.150001f, 1, -2 },
  { 2, 0.009580f, -2, -1 },
  { 0, 20.600000f, 1, -1 },
  { 2, 0.009050f, 1, -1 },
  { 1, 79.950001f, -2, -1 },
  { 2, 0.003745f, 1, 40 },
  { 1, 67.049999f, 1, 14 },
  { 1, 38.550000f, 1, 3 },
  { 2, 0.003617f, -2, 1 },
  { 2, 0.003684f, -1, -2 },
  { 2, 0.003541f, -2, 1 },
  { 1, 63.750000f, 1, 8 },
  { 2, 0.003744f, 1, -2 },
  { 2, 0.003571f, 1, 2 },
  { 0, 21.850000f, -2, -1 },
  { 2, 0.003700f, 1, 3 },
  { 1, 62.049999f, -1, 1 },
  { 0, 13.050000f, -2, -1 },
  { 2, 0.003701f, -2, -1 },
  { 1, 64.150002f, -2, -1 },
  { 1, 78.450001f, 1, 21 },
  { 1, 76.850002f, 1, 2 },
  { 0, 21.850000f, -2, -1 },
  { 1, 77.850002f, 1, 8 },
  { 1, 77.149998f, 1, 6 },
  { 1, 77.049999f, 1, 4 },
  { 1, 76.950001f, 1, 2 },
  { 0, 21.800000f, -2, -1 },
  { 0, 21.800000f, -2, -1 },
  { 0, 21.800000f, -2, -1 },
  { 0, 21.700001f, -2, -1 },
  { 1, 78.350002f, 1, 9 },
  { 2, 0.003614f, 1, 2 },
  { 0, 21.950001f, -2, -1 },
  { 1, 78.049999f, 1, -1 },
  { 1, 77.950001f, 1, 3 },
  { 2, 0.003658f, 1, -1 },
  { 0, 21.800000f, -2, -1 },
  { 2, 0.003744f, 1, -2 },
  { 0, 21.750000f, -2, -1 },
  { 0, 21.950001f, -2, -1 },
  { 0, 21.900001f, 1, -1 },
  { 0, 19.450000f, 1, 2 },
  { 1, 79.950001f, -2, -1 },
  { 1, 79.950001f, -2, -1 },
  { 1, 72.549999f, 1, 2 },
  { 0, 20.650000f, -2, -1 },
  { 0, 20.300000f, 1, -1 },
  { 2, 0.009050f, 1, -1 },
  { 2, 0.003821f, 1, 4 },
  { 0, 18.099999f, -1, 1 },
  { 0, 18.550000f, 1, -2 },
  { 1, 79.049999f, -2, -1 },
  { 2, 0.004056f, 1, -2 },
  { 2, 0.004043f, -2, -1 },
  { 2, 0.003745f, 1, 3 },
  { 0, 21.700001f, 1, -1 },
  { 1, 79.950001f, -2, -1 },
  { 0, 20.500000f, 1, -1 },
  { 1, 74.750000f, 1, 10 },
  { 1, 73.649998f, 1, 8 },
  { 0, 18.950000f, 1, -2 },
  { 0, 18.849999f, 1, 5 },
  { 1, 73.549999f, 1, 3 },
  { 0, 18.750000f, -2, 1 },
  { 2, 0.010036f, -2, -1 },
  { 2, 0.009432f, -2, -1 },
  { 2, 0.008597f, -2, -1 },
  { 2, 0.009050f, -2, -1 },
  { 0, 18.500000f, 1, 2 },
  { 1, 80.199997f, -2, -1 },
  { 1, 75.250000f, 1, -2 },
  { 1, 74.850002f, 1, 3 },
  { 0, 19.050000f, 1, -2 },
  { 2, 0.009506f, -2, -1 },
  { 0, 18.650001f, -1, 1 },
  { 2, 0.009919f, -2, -1 },
  { 1, 71.850002f, 1, 50 },
  { 1, 33.550000f, 1, 6 },
  { 2, 0.003755f, 1, 2 },
  { 0, 21.900001f, -2, -1 },
  { 1, 19.850000f, -1, 1 },
  { 2, 0.004452f, 1, -2 },
  { 1, 23.099999f, -2, -1 },
  { 2, 0.003541f, -2, 1 },
  { 2, 0.008217f, 1, -2 },
  { 1, 70.549999f, 1, 34 },
  { 1, 60.549999f, 1, 23 },
  { 1, 55.450001f, 1, 19 },
  { 1, 51.650000f, 1, 8 },
  { 1, 48.850000f, 1, -1 },
  { 1, 48.750000f, 1, 4 },
  { 2, 0.003822f, 1, 2 },
  { 0, 15.700000f, -2, -1 },
  { 0, 12.100000f, -2, -1 },
  { 2, 0.004553f, 1, -1 },
  { 2, 0.004512f, -1, -2 },
  { 1, 53.850000f, 1, 7 },
  { 1, 53.549999f, 1, 2 },
  { 0, 20.550000f, -2, -1 },
  { 2, 0.003778f, 1, 2 },
  { 0, 17.200000f, -2, -1 },
  { 1, 53.650000f, 1, -1 },
  { 0, 13.100000f, -2, -1 },
  { 1, 54.650000f, 1, -1 },
  { 1, 54.549999f, -1, 1 },
  { 0, 11.550000f, -2, -1 },
  { 2, 0.005838f, 1, 2 },
  { 0, 20.800000f, -2, -1 },
  { 2, 0.005855f, -2, -1 },
  { 1, 62.250000f, 1, 9 },
  { 1, 61.150000f, 1, 7 },
  { 2, 0.006694f, 1, -2 },
  { 1, 60.750000f, 1, 2 },
  { 0, 14.350000f, -2, -1 },
  { 1, 61.049999f, 1, 2 },
  { 0, 21.200001f, -2, -1 },
  { 0, 14.800000f, -2, -1 },
  { 0, 20.900001f, -2, -1 },
  { 0, 20.850000f, -2, -1 },
  { 2, 0.004441f, 1, 5 },
  { 2, 0.003805f, -2, 1 },
  { 1, 71.250000f, -1, 1 },
  { 1, 71.350002f, 1, -1 },
  { 0, 13.400000f, -2, -1 },
  { 1, 70.850002f, 1, -2 },
  { 0, 20.700000f, -2, -1 },
  { 1, 78.450001f, 1, 19 },
  { 0, 21.050000f, 1, -1 },
  { 0, 18.650001f, 1, 7 },
  { 1, 73.649998f, 1, 2 },
  { 2, 0.010331f, -2, -1 },
  { 1, 74.649998f, 1, 2 },
  { 2, 0.009118f, -2, -1 },
  { 1, 74.750000f, 1, -2 },
  { 0, 18.350000f, -2, -1 },
  { 1, 74.750000f, 1, 4 },
  { 0, 18.950000f, 1, 2 },
  { 2, 0.009050f, -2, -1 },
  { 2, 0.009086f, -2, -1 },
  { 0, 18.849999f, 1, -2 },
  { 1, 75.250000f, 1, -2 },
  { 1, 74.950001f, 1, 3 },
  { 0, 18.750000f, -2, 1 },
  { 2, 0.009862f, -2, -1 },
  { 2, 0.009466f, -2, -1 },
  { 1, 79.950001f, 1, -1 },
  { 2, 0.003567f, -2, 1 },
  { 1, 79.149998f, 1, -1 },
  { 0, 21.800000f, -2, -1 },
  { 1, 71.850002f, 1, 6 },
  { 1, 33.550000f, 1, 4 },
  { 1, 17.900000f, -1, 1 },
  { 2, 0.003575f, -2, 1 },
  { 0, 21.500000f, -2, -1 },
  { 0, 20.650000f, -2, -1 },
  { 1, 78.450001f, 1, 78 },
  { 1, 76.750000f, 1, 74 },
  { 1, 73.250000f, 1, 29 },
  { 1, 73.049999f, 1, 10 },
  { 1, 72.250000f, 1, 6 },
  { 1, 71.950001f, 1, 2 },
  { 2, 0.003441f, -2, -1 },
  { 2, 0.003439f, -2, 1 },
  { 2, 0.004062f, -1, 1 },
  { 2, 0.004274f, -2, -1 },
  { 2, 0.003803f, 1, 2 },
  { 0, 22.750000f, -2, -1 },
  { 0, 21.250000f, -2, -1 },
  { 1, 73.149998f, 1, 13 },
  { 2, 0.004091f, 1, -2 },
  { 2, 0.003849f, 1, 3 },
  { 2, 0.003791f, -2, 1 },
  { 0, 22.349999f, -2, -1 },
  { 2, 0.003916f, 1, 5 },
  { 2, 0.003897f, 1, -1 },
  { 2, 0.003874f, -1, 1 },
  { 2, 0.003884f, -2, 1 },
  { 2, 0.003894f, -1, -2 },
  { 2, 0.003919f, -2, 1 },
  { 2, 0.004013f, -1, 1 },
  { 0, 21.799999f, -2, -1 },
  { 2, 0.003852f, 1, 3 },
  { 2, 0.003815f, -2, 1 },
  { 0, 22.250000f, -2, -1 },
  { 0, 21.200001f, 1, -1 },
  { 2, 0.008855f, -2, -1 },
  { 1, 73.649998f, 1, 3 },
  { 0, 22.050000f, 1, -1 },
  { 2, 0.008855f, -2, -1 },
  { 2, 0.009050f, 1, -1 },
  { 2, 0.003745f, 1, 8 },
  { 1, 76.049999f, 1, 3 },
  { 2, 0.003662f, -2, 1 },
  { 0, 21.800000f, -2, -1 },
  { 2, 0.003660f, 1, 3 },
  { 2, 0.003640f, -2, 1 },
  { 2, 0.003651f, -1, -2 },
  { 0, 22.000000f, -2, -1 },
  { 1, 74.750000f, 1, 31 },
  { 1, 74.149998f, 1, 29 },
  { 1, 73.850002f, 1, 2 },
  { 0, 22.100000f, -2, -1 },
  { 1, 74.049999f, 1, 18 },
  { 2, 0.003883f, 1, 6 },
  { 2, 0.003782f, 1, 2 },
  { 0, 22.250000f, -2, -1 },
  { 1, 73.950001f, 1, 2 },
  { 0, 21.799999f, -2, -1 },
  { 0, 22.000000f, -2, -1 },
  { 1, 73.950001f, 1, 2 },
  { 0, 22.100000f, -2, -1 },
  { 2, 0.004055f, 1, 7 },
  { 2, 0.003921f, -2, 1 },
  { 2, 0.003962f, 1, 3 },
  { 2, 0.003938f, 1, -1 },
  { 2, 0.003927f, -1, -2 },
  { 2, 0.003973f, -2, 1 },
  { 0, 21.650001f, -2, -1 },
  { 2, 0.004082f, 1, -2 },
  { 0, 21.750000f, -2, -1 },
  { 2, 0.004013f, 1, 4 },
  { 2, 0.003973f, 1, 2 },
  { 0, 22.100000f, -2, -1 },
  { 0, 21.700001f, -2, -1 },
  { 2, 0.004399f, 1, -2 },
  { 2, 0.004338f, 1, -1 },
  { 2, 0.004022f, 1, -2 },
  { 0, 21.950001f, -2, -1 },
  { 0, 22.050000f, -2, -1 },
  { 0, 20.950000f, -2, -1 },
  { 1, 77.049999f, 1, 2 },
  { 0, 21.800000f, -2, -1 },
  { 0, 21.700001f, -2, -1 },
  { 0, 20.150001f, 1, -1 },
  { 2, 0.002642f, 1, 13 },
  { 0, 19.849999f, 1, 2 },
  { 1, 79.950001f, -2, -1 },
  { 2, 0.001574f, 1, 9 },
  { 0, 19.950000f, 1, 3 },
  { 2, 0.001255f, -2, 1 },
  { 1, 80.049999f, -2, -1 },
  { 0, 20.050000f, 1, 2 },
  { 1, 79.950001f, -2, -1 },
  { 2, 0.001247f, 1, -2 },
  { 2, 0.001222f, -2, 1 },
  { 1, 79.849998f, -2, -1 },
  { 1, 79.849998f, -2, -1 },
  { 0, 19.450000f, 1, -2 },
  { 0, 19.150001f, 1, 3 },
  { 0, 18.500000f, -1, 1 },
  { 1, 80.000000f, -2, -1 },
  { 2, 0.002989f, 1, 7 },
  { 2, 0.002856f, 1, 5 },
  { 0, 19.349999f, -1, 1 },
  { 2, 0.002770f, -1, 1 },
  { 2, 0.002816f, 1, -1 },
  { 1, 80.000000f, -2, -1 },
  { 1, 79.349998f, -2, -1 },
  { 2, 0.003405f, 1, -2 },
  { 1, 79.950001f, -2, -1 },
  { 0, 20.600000f, 1, -1 },
  { 0, 18.650001f, 1, 9 },
  { 0, 18.550000f, 1, 7 },
  { 2, 0.008923f, 1, -1 },
  { 2, 0.004050f, 1, -2 },
  { 0, 15.900000f, 1, 2 },
  { 1, 80.500000f, -2, -1 },
  { 2, 0.003988f, 1, -1 },
  { 1, 83.049999f, -2, -1 },
  { 2, 0.009050f, -2, -1 },
  { 2, 0.009050f, 1, -1 },
  { 1, 79.950001f, -2, -1 },
  { 2, 0.003745f, 1, 24 },
  { 0, 21.850000f, 1, -1 },
  { 0, 19.849999f, 1, 16 },
  { 2, 0.002228f, 1, 11 },
  { 0, 19.450000f, 1, 4 },
  { 0, 19.349999f, -2, 1 },
  { 2, 0.002049f, -2, 1 },
  { 1, 79.950001f, -2, -1 },
  { 0, 19.550000f, 1, 5 },
  { 2, 0.002070f, 1, 2 },
  { 1, 89.550003f, -2, -1 },
  { 2, 0.002131f, 1, -2 },
  { 1, 80.000000f, -2, -1 },
  { 1, 79.900002f, -2, -1 },
  { 2, 0.002785f, 1, 3 },
  { 0, 19.450000f, 1, -2 },
  { 1, 79.849998f, -2, -1 },
  { 1, 79.950001f, -2, -1 },
  { 0, 19.950000f, 1, 2 },
  { 1, 80.049999f, -2, -1 },
  { 0, 20.050000f, 1, 2 },
  { 1, 79.950001f, -2, -1 },
  { 0, 20.150001f, 1, -2 },
  { 1, 79.950001f, -2, -1 },
  { 2, 0.004957f, 1, 24 },
  { 1, 72.549999f, 1, 21 },
  { 2, 0.004956f, 1, -2 },
  { 2, 0.004196f, 1, 11 },
  { 1, 72.350002f, 1, 9 },
  { 2, 0.004166f, 1, 2 },
  { 0, 20.500000f, -2, -1 },
  { 1, 71.899998f, 1, -2 },
  { 2, 0.004167f, 1, 4 },
  { 1, 62.100000f, 1, -1 },
  { 1, 61.150000f, 1, -2 },
  { 0, 21.350000f, -2, -1 },
  { 0, 20.000000f, -2, -1 },
  { 0, 21.900000f, -2, -1 },
  { 1, 72.149998f, 1, 2 },
  { 0, 20.650000f, -2, -1 },
  { 2, 0.004399f, 1, 2 },
  { 2, 0.004274f, -2, -1 },
  { 1, 72.350002f, 1, 3 },
  { 2, 0.004653f, -2, 1 },
  { 0, 22.849999f, -2, -1 },
  { 0, 23.350000f, -2, -1 },
  { 0, 20.150001f, 1, -1 },
  { 1, 80.599998f, -2, -1 },
  { 1, 70.700001f, 1, 7 },
  { 2, 0.008135f, 1, -2 },
  { 2, 0.007679f, 1, 4 },
  { 1, 34.199999f, 1, 2 },
  { 1, 13.900000f, -1, -2 },
  { 0, 20.150001f, -2, -1 },
  { 0, 19.950001f, -2, -1 },
  { 0, 18.650001f, 1, 14 },
  { 0, 18.550000f, 1, 10 },
  { 1, 73.549999f, -2, 1 },
  { 1, 74.250000f, 1, 5 },
  { 0, 18.450000f, -1, 1 },
  { 1, 73.649998f, 1, 2 },
  { 2, 0.010380f, -2, -1 },
  { 2, 0.008845f, -2, -1 },
  { 0, 17.200000f, -2, 1 },
  { 1, 74.350002f, -1, 1 },
  { 1, 74.450001f, -2, -1 },
  { 1, 73.850002f, 1, 2 },
  { 2, 0.009052f, -2, -1 },
  { 2, 0.009050f, -2, -1 },
  { 0, 19.150001f, 1, -2 },
  { 0, 18.849999f, 1, 2 },
  { 2, 0.008919f, -2, -1 },
  { 0, 18.950000f, 1, 21 },
  { 1, 73.450001f, 1, 3 },
  { 1, 73.250000f, 1, -2 },
  { 2, 0.008213f, -2, -1 },
  { 1, 73.950001f, 1, 10 },
  { 1, 73.649998f, 1, 4 },
  { 1, 73.549999f, 1, 2 },
  { 2, 0.008608f, -2, -1 },
  { 2, 0.008597f, -2, -1 },
  { 1, 73.850002f, 1, 4 },
  { 1, 73.750000f, 1, 2 },
  { 2, 0.008608f, -2, -1 },
  { 2, 0.008923f, -2, -1 },
  { 2, 0.009118f, -2, -1 },
  { 1, 74.350002f, 1, 6 },
  { 1, 74.149998f, 1, 4 },
  { 1, 74.049999f, 1, 2 },
  { 2, 0.009050f, -2, -1 },
  { 2, 0.009118f, -2, -1 },
  { 2, 0.009052f, -2, -1 },
  { 2, 0.009417f, -2, -1 },
  { 0, 19.050000f, 1, 2 },
  { 2, 0.008987f, -2, -1 },
  { 1, 74.350002f, 1, 2 },
  { 2, 0.008923f, -2, -1 },
  { 2, 0.008923f, -2, -1 },
  { 2, 0.003745f, 1, 15 },
  { 0, 21.850000f, 1, -1 },
  { 2, 0.001313f, 1, 12 },
  { 0, 19.849999f, 1, 2 },
  { 1, 80.100002f, -2, -1 },
  { 2, 0.001238f, 1, 2 },
  { 1, 79.950001f, -2, -1 },
  { 0, 19.950000f, 1, 2 },
  { 1, 80.049999f, -2, -1 },
  { 0, 20.050000f, 1, 2 },
  { 1, 79.950001f, -2, -1 },
  { 2, 0.001255f, -1, 1 },
  { 2, 0.001270f, 1, -2 },
  { 1, 80.049999f, -2, -1 },
  { 1, 79.950001f, -2, -1 },
  { 0, 20.150001f, 1, -1 },
  { 0, 18.650001f, 1, 3 },
  { 2, 0.009050f, 1, -1 },
  { 1, 80.649998f, -2, -1 },
  { 2, 0.009050f, -2, -1 },
  { 1, 71.850002f, 1, 2 },
  { 0, 20.650000f, -2, -1 },
  { 2, 0.003571f, 1, 3 },
  { 0, 21.900001f, 1, -1 },
  { 1, 79.950001f, -2, -1 },
  { 2, 0.004488f, 1, 89 },
  { 1, 76.750000f, 1, 63 },
  { 2, 0.003745f, 1, 30 },
  { 1, 76.049999f, 1, 6 },
  { 2, 0.003700f, 1, -2 },
  { 1, 72.700001f, -1, 1 },
  { 2, 0.003662f, -2, 1 },
  { 2, 0.003690f, 1, -1 },
  { 2, 0.003688f, -1, -2 },
  { 2, 0.003700f, 1, 15 },
  { 2, 0.003660f, 1, 4 },
  { 1, 76.450001f, -2, 1 },
  { 1, 76.649998f, 1, -2 },
  { 0, 22.850000f, -2, -1 },
  { 1, 76.149998f, 1, 3 },
  { 2, 0.003688f, -1, 1 },
  { 2, 0.003691f, -2, -1 },
  { 1, 76.450001f, 1, -1 },
  { 1, 76.250000f, -1, 1 },
  { 2, 0.003691f, 1, 3 },
  { 1, 76.350002f, 1, -1 },
  { 0, 21.750000f, -2, -1 },
  { 1, 76.350002f, -1, 1 },
  { 0, 22.100000f, -2, -1 },
  { 2, 0.003740f, 1, -2 },
  { 1, 76.549999f, 1, 5 },
  { 1, 76.149998f, -2, 1 },
  { 1, 76.250000f, 1, 2 },
  { 0, 21.750000f, -2, -1 },
  { 0, 21.750000f, -2, -1 },
  { 2, 0.003704f, -2, 1 },
  { 0, 21.700000f, -2, -1 },
  { 1, 73.250000f, 1, 15 },
  { 2, 0.004014f, 1, 5 },
  { 1, 72.549999f, 1, 3 },
  { 1, 72.350002f, -1, 1 },
  { 2, 0.003911f, -1, -2 },
  { 0, 21.350000f, -2, -1 },
  { 1, 72.549999f, 1, 6 },
  { 1, 72.149998f, -1, 1 },
  { 1, 72.450001f, 1, 3 },
  { 2, 0.004274f, -2, 1 },
  { 0, 23.350000f, -2, -1 },
  { 2, 0.004250f, -2, -1 },
  { 2, 0.004334f, 1, 2 },
  { 0, 21.900000f, -2, -1 },
  { 0, 23.300000f, -2, -1 },
  { 2, 0.004115f, 1, 16 },
  { 1, 75.850002f, 1, 14 },
  { 1, 73.850002f, 1, 12 },
  { 2, 0.003916f, 1, 2 },
  { 0, 22.150000f, -2, -1 },
  { 1, 73.350002f, 1, 2 },
  { 0, 22.000000f, -2, -1 },
  { 1, 73.649998f, 1, 3 },
  { 2, 0.003921f, -2, 1 },
  { 0, 21.950001f, -2, -1 },
  { 1, 73.750000f, 1, 3 },
  { 2, 0.003931f, -2, 1 },
  { 0, 21.800000f, -2, -1 },
  { 0, 22.100000f, -2, -1 },
  { 0, 21.700000f, -2, -1 },
  { 0, 21.750000f, -2, -1 },
  { 0, 22.300000f, -2, -1 },
  { 2, 0.003744f, 1, 2 },
  { 0, 21.600000f, -2, -1 },
  { 2, 0.003745f, -2, 1 },
  { 1, 78.149998f, 1, 18 },
  { 2, 0.004016f, 1, 16 },
  { 1, 77.649998f, 1, 8 },
  { 2, 0.003778f, 1, 2 },
  { 0, 21.300000f, -2, -1 },
  { 2, 0.003974f, 1, 4 },
  { 1, 77.350002f, 1, 2 },
  { 0, 21.750000f, -2, -1 },
  { 0, 21.800000f, -2, -1 },
  { 2, 0.004013f, -1, -2 },
  { 2, 0.003809f, 1, 2 },
  { 0, 21.800000f, -2, -1 },
  { 2, 0.003837f, 1, 3 },
  { 1, 77.799999f, 1, -2 },
  { 2, 0.003825f, -2, -1 },
  { 2, 0.003894f, 1, -2 },
  { 2, 0.003888f, -2, -1 },
  { 0, 22.750000f, -2, -1 },
  { 0, 20.100000f, 1, -1 },
  { 2, 0.003847f, -1, 1 },
  { 2, 0.004055f, 1, -2 },
  { 1, 84.600002f, -2, -1 },
  { 0, 21.650000f, 1, -1 },
  { 2, 0.009050f, -2, -1 },
  { 1, 71.850002f, 1, 12 },
  { 1, 33.550000f, 1, 10 },
  { 2, 0.003755f, 1, 5 },
  { 2, 0.003626f, -2, 1 },
  { 1, 15.700000f, -1, 1 },
  { 1, 25.500000f, -2, 1 },
  { 0, 21.500000f, -2, -1 },
  { 1, 19.850000f, -1, 1 },
  { 2, 0.004158f, 1, -2 },
  { 2, 0.004013f, -1, 1 },
  { 2, 0.004074f, -2, -1 },
  { 0, 20.650000f, -2, -1 },
  { 1, 78.450001f, 1, 54 },
  { 1, 76.649998f, 1, 49 },
  { 0, 21.200000f, 1, -1 },
  { 1, 74.750000f, 1, 42 },
  { 0, 18.650001f, 1, 23 },
  { 1, 73.649998f, 1, 6 },
  { 0, 18.550000f, 1, 4 },
  { 0, 18.400000f, -2, 1 },
  { 1, 73.549999f, -2, 1 },
  { 2, 0.010380f, -2, -1 },
  { 2, 0.010236f, -2, -1 },
  { 1, 73.850002f, 1, 2 },
  { 2, 0.009118f, -2, -1 },
  { 1, 74.549999f, 1, 11 },
  { 1, 74.450001f, 1, 9 },
  { 1, 74.350002f, 1, 6 },
  { 0, 18.349999f, -2, 1 },
  { 1, 74.149998f, 1, 3 },
  { 0, 18.550000f, -1, 1 },
  { 2, 0.008984f, -2, -1 },
  { 2, 0.009401f, -2, -1 },
  { 0, 18.550000f, -2, 1 },
  { 2, 0.009401f, -2, -1 },
  { 0, 18.450000f, -2, -1 },
  { 1, 74.649998f, 1, -2 },
  { 0, 12.700000f, -2, 1 },
  { 2, 0.009880f, -2, -1 },
  { 0, 18.950000f, 1, 16 },
  { 1, 73.750000f, 1, 14 },
  { 0, 18.750000f, 1, 2 },
  { 2, 0.010910f, -2, -1 },
  { 0, 18.849999f, 1, 5 },
  { 1, 73.649998f, 1, 3 },
  { 1, 73.549999f, -2, 1 },
  { 2, 0.009269f, -2, -1 },
  { 2, 0.008808f, -2, -1 },
  { 1, 73.450001f, -2, 1 },
  { 1, 73.649998f, 1, 4 },
  { 1, 73.549999f, 1, 2 },
  { 2, 0.008551f, -2, -1 },
  { 2, 0.008597f, -2, -1 },
  { 2, 0.008539f, -2, -1 },
  { 2, 0.009050f, -2, -1 },
  { 0, 19.150001f, 1, -2 },
  { 2, 0.009017f, -2, -1 },
  { 0, 18.750000f, 1, 3 },
  { 0, 18.450000f, -2, 1 },
  { 2, 0.009230f, -2, -1 },
  { 1, 75.250000f, 1, -2 },
  { 2, 0.009580f, -2, -1 },
  { 2, 0.003549f, -2, 1 },
  { 2, 0.004488f, 1, 2 },
  { 0, 21.650001f, -2, -1 },
  { 0, 23.300000f, -2, -1 },
  { 1, 79.950001f, 1, -1 },
  { 0, 21.650001f, -2, -1 },
  { 0, 20.600000f, 1, -1 },
  { 0, 18.650001f, 1, 3 },
  { 2, 0.009050f, 1, -1 },
  { 1, 80.599998f, -2, -1 },
  { 1, 79.950001f, 1, -1 },
  { 1, 74.750000f, 1, 19 },
  { 0, 18.950000f, 1, 17 },
  { 0, 18.750000f, 1, 5 },
  { 1, 73.850002f, -2, 1 },
  { 1, 74.350002f, 1, 2 },
  { 2, 0.009809f, -2, -1 },
  { 2, 0.009732f, -2, -1 },
  { 0, 18.849999f, 1, 8 },
  { 1, 73.750000f, 1, 4 },
  { 1, 73.549999f, 1, 2 },
  { 2, 0.010036f, -2, -1 },
  { 2, 0.009432f, -2, -1 },
  { 1, 74.149998f, 1, 2 },
  { 2, 0.008971f, -2, -1 },
  { 2, 0.009479f, -2, -1 },
  { 1, 73.649998f, 1, 2 },
  { 2, 0.008539f, -2, -1 },
  { 2, 0.009050f, -2, -1 },
  { 2, 0.009017f, -2, -1 },
  { 2, 0.009862f, -2, -1 },
  { 2, 0.003745f, 1, 5 },
  { 0, 21.850000f, 1, -1 },
  { 0, 19.849999f, 1, 2 },
  { 1, 79.950001f, -2, -1 },
  { 1, 79.950001f, -2, -1 },
  { 2, 0.004957f, 1, 18 },
  { 2, 0.004956f, 1, -2 },
  { 1, 72.549999f, 1, 2 },
  { 0, 20.450000f, -2, -1 },
  { 2, 0.004488f, 1, 4 },
  { 0, 20.150001f, 1, -1 },
  { 2, 0.004056f, 1, -2 },
  { 1, 80.399998f, -2, -1 },
  { 2, 0.004571f, 1, 9 },
  { 1, 74.250000f, -2, 1 },
  { 2, 0.004492f, -2, 1 },
  { 1, 76.250000f, 1, 5 },
  { 1, 75.250000f, 1, 3 },
  { 1, 74.649998f, 1, -1 },
  { 2, 0.004536f, -1, -2 },
  { 0, 23.100000f, -2, -1 },
  { 0, 21.650000f, -2, -1 },
  { 0, 21.750000f, -2, -1 },
  { 1, 70.700001f, 1, 2 },
  { 0, 20.100000f, -2, -1 },
  { 1, 73.649998f, 1, 5 },
  { 1, 73.549999f, 1, 3 },
  { 0, 18.750000f, -2, 1 },
  { 2, 0.008608f, -2, -1 },
  { 2, 0.008855f, -2, -1 },
  { 0, 18.650001f, 1, 4 },
  { 0, 17.200000f, 1, 2 },
  { 1, 74.050003f, -1, -2 },
  { 2, 0.009050f, -2, -1 },
  { 1, 74.750000f, 1, 2 },
  { 2, 0.009050f, -2, -1 },
  { 0, 18.750000f, 1, 2 },
  { 1, 75.250000f, -1, -2 },
  { 0, 18.849999f, 1, 3 },
  { 1, 75.049999f, 1, -2 },
  { 2, 0.009862f, -2, -1 },
  { 0, 19.050000f, -2, 1 },
  { 0, 19.150001f, 1, -2 },
  { 1, 75.649998f, 1, -2 },
  { 1, 75.149998f, -2, 1 },
  { 2, 0.008244f, -2, -1 },
  { 2, 0.003745f, 1, 5 },
  { 1, 63.350000f, 1, 2 },
  { 0, 21.800000f, -2, -1 },
  { 0, 22.000000f, 1, -1 },
  { 1, 79.950001f, -2, -1 },
  { 2, 0.004957f, 1, 10 },
  { 0, 20.650000f, 1, -1 },
  { 0, 18.450000f, 1, -2 },
  { 2, 0.003904f, 1, 4 },
  { 0, 18.150000f, 1, -1 },
  { 0, 5.700000f, 1, -2 },
  { 2, 0.003842f, -2, -1 },
  { 0, 17.400000f, -2, 1 },
  { 2, 0.004056f, 1, -2 },
  { 1, 83.450001f, -2, -1 },
  { 1, 70.700001f, 1, 11 },
  { 2, 0.008217f, 1, -2 },
  { 1, 34.199999f, -2, 1 },
  { 2, 0.007679f, 1, 7 },
  { 1, 70.549999f, 1, 5 },
  { 2, 0.006447f, 1, 3 },
  { 1, 61.250000f, -1, 1 },
  { 0, 14.300000f, -2, -1 },
  { 1, 57.600000f, -1, -2 },
  { 0, 20.650000f, -2, -1 },
  { 0, 13.600000f, -2, -1 },
  { 2, 0.009050f, -2, -1 },
  { 1, 71.850002f, 1, 18 },
  { 2, 0.003571f, 1, 3 },
  { 1, 51.950001f, 1, -2 },
  { 0, 21.900001f, -2, -1 },
  { 2, 0.008135f, 1, -2 },
  { 1, 26.200000f, 1, 9 },
  { 1, 19.850000f, -1, 1 },
  { 1, 25.400000f, 1, 3 },
  { 2, 0.004109f, 1, -2 },
  { 0, 22.050000f, -2, -1 },
  { 1, 25.750000f, -1, 1 },
  { 2, 0.003670f, -1, 1 },
  { 2, 0.003916f, -2, 1 },
  { 1, 25.950000f, -1, -2 },
  { 1, 71.649998f, 1, 2 },
  { 0, 20.450000f, -2, -1 },
  { 2, 0.004603f, 1, -2 },
  { 0, 22.000000f, -2, -1 },
  { 0, 20.600000f, 1, -1 },
  { 2, 0.009050f, 1, -1 },
  { 2, 0.001316f, 1, 2 },
  { 1, 79.950001f, -2, -1 },
  { 2, 0.001328f, 1, 2 },
  { 1, 80.049999f, -2, -1 },
  { 1, 79.950001f, -2, -1 },
  { 0, 20.600000f, 1, -1 },
  { 1, 79.950001f, 1, -1 },
  { 2, 0.009050f, -2, -1 },
  { 1, 71.850002f, 1, 2 },
  { 0, 20.600000f, -2, -1 },
  { 0, 20.350000f, 1, -1 },
  { 2, 0.009050f, 1, -1 },
  { 2, 0.001313f, 1, 5 },
  { 0, 19.849999f, 1, 3 },
  { 2, 0.001305f, -2, 1 },
  { 0, 19.750000f, -2, -1 },
  { 1, 79.950001f, -2, -1 },
  { 0, 5.500000f, 1, 2 },
  { 1, 80.199997f, -2, -1 },
  { 2, 0.001328f, 1, 2 },
  { 1, 79.950001f, -2, -1 },
  { 1, 79.950001f, -2, -1 },
  { 0, 20.600000f, 1, -1 },
  { 1, 79.950001f, 1, -1 },
  { 2, 0.009050f, -2, -1 },
  { 1, 71.850002f, 1, 3 },
  { 2, 0.003547f, -2, 1 },
  { 0, 20.550000f, -2, -1 },
  { 1, 78.450001f, 1, 6 },
  { 1, 76.750000f, 1, 3 },
  { 0, 21.750000f, 1, -1 },
  { 2, 0.009050f, -2, -1 },
  { 2, 0.003535f, -2, 1 },
  { 0, 21.800000f, -2, -1 },
  { 0, 20.350000f, 1, -1 },
  { 0, 19.450000f, 1, 2 },
  { 1, 79.950001f, -2, -1 },
  { 1, 79.950001f, -2, -1 },
  { 1, 71.850002f, 1, 2 },
  { 0, 20.600000f, -2, -1 },
  { 0, 20.600000f, 1, -1 },
  { 2, 0.009050f, 1, -1 },
  { 1, 79.950001f, -2, -1 },
  { 0, 20.600000f, 1, -1 },
  { 2, 0.009050f, 1, -1 },
  { 0, 18.450000f, 1, 2 },
  { 1, 80.500000f, -2, -1 },
  { 0, 19.849999f, 1, 2 },
  { 1, 79.950001f, -2, -1 },
  { 0, 20.050000f, 1, 2 },
  { 1, 79.950001f, -2, -1 },
  { 1, 79.950001f, -2, -1 },
  { 2, 0.003745f, 1, 16 },
  { 1, 63.350000f, 1, 13 },
  { 2, 0.003547f, -2, 1 },
  { 1, 26.049999f, -2, 1 },
  { 2, 0.003744f, 1, -2 },
  { 2, 0.003700f, 1, 7 },
  { 2, 0.003665f, 1, -1 },
  { 2, 0.003659f, -1, 1 },
  { 2, 0.003662f, 1, 3 },
  { 1, 62.350000f, 1, -1 },
  { 1, 62.250000f, -1, -2 },
  { 0, 13.250000f, -2, -1 },
  { 1, 60.550001f, -1, 1 },
  { 0, 22.550000f, -2, -1 },
  { 0, 21.850000f, 1, -1 },
  { 1, 79.950001f, -2, -1 },
  { 0, 20.150001f, 1, -1 },
  { 1, 74.750000f, 1, 46 },
  { 1, 73.649998f, 1, 15 },
  { 0, 18.950000f, 1, -2 },
  { 0, 18.849999f, 1, 11 },
  { 1, 73.549999f, 1, 4 },
  { 1, 73.250000f, -2, 1 },
  { 0, 18.750000f, -2, 1 },
  { 2, 0.010036f, -2, -1 },
  { 0, 18.650001f, 1, 4 },
  { 0, 18.550000f, 1, 2 },
  { 2, 0.010427f, -2, -1 },
  { 2, 0.010173f, -2, -1 },
  { 0, 18.750000f, -2, 1 },
  { 2, 0.009326f, -2, -1 },
  { 1, 73.450001f, -2, 1 },
  { 2, 0.008597f, -2, -1 },
  { 1, 74.549999f, 1, 29 },
  { 0, 18.650001f, 1, 5 },
  { 0, 18.400000f, -2, 1 },
  { 0, 18.550000f, 1, 2 },
  { 2, 0.008845f, -2, -1 },
  { 2, 0.009050f, -2, -1 },
  { 1, 74.350002f, 1, 9 },
  { 0, 18.950000f, 1, 7 },
  { 1, 73.750000f, 1, 5 },
  { 0, 18.750000f, -2, 1 },
  { 0, 18.849999f, 1, 2 },
  { 2, 0.008777f, -2, -1 },
  { 2, 0.008539f, -2, -1 },
  { 2, 0.009050f, -2, -1 },
  { 2, 0.008987f, -2, -1 },
  { 0, 19.050000f, 1, 10 },
  { 0, 18.750000f, 1, 2 },
  { 2, 0.009611f, -2, -1 },
  { 0, 18.950000f, 1, 4 },
  { 1, 74.450001f, 1, 2 },
  { 2, 0.009479f, -2, -1 },
  { 2, 0.008923f, -2, -1 },
  { 1, 74.450001f, 1, 2 },
  { 2, 0.008987f, -2, -1 },
  { 2, 0.009362f, -2, -1 },
  { 1, 74.450001f, 1, 2 },
  { 2, 0.008923f, -2, -1 },
  { 0, 19.150001f, 1, -2 },
  { 2, 0.009102f, -2, -1 },
  { 2, 0.009315f, -2, -1 },
  { 1, 82.099998f, 1, -1 },
  { 1, 75.250000f, 1, -2 },
  { 0, 18.650001f, 1, 2 },
  { 2, 0.008668f, -2, -1 },
  { 1, 74.850002f, -2, 1 },
  { 1, 75.149998f, 1, 3 },
  { 0, 18.849999f, 1, -2 },
  { 2, 0.009096f, -2, -1 },
  { 2, 0.008725f, -2, -1 },
  { 2, 0.003745f, 1, 5 },
  { 1, 63.350000f, 1, 2 },
  { 0, 21.800000f, -2, -1 },
  { 0, 21.850000f, 1, -1 },
  { 1, 79.950001f, -2, -1 },
  { 2, 0.004957f, 1, 35 },
  { 1, 72.549999f, 1, 2 },
  { 0, 20.550000f, -2, -1 },
  { 2, 0.004571f, 1, 21 },
  { 2, 0.003778f, 1, 9 },
  { 1, 75.850002f, 1, 4 },
  { 1, 74.650002f, -1, 1 },
  { 1, 75.299999f, -2, 1 },
  { 0, 21.950000f, -2, -1 },
  { 1, 77.049999f, 1, -1 },
  { 1, 76.850002f, -1, 1 },
  { 2, 0.003766f, -1, 1 },
  { 2, 0.003769f, -2, -1 },
  { 2, 0.004167f, 1, 10 },
  { 0, 20.400001f, 1, -1 },
  { 0, 18.450000f, 1, -2 },
  { 2, 0.004055f, 1, -2 },
  { 2, 0.004030f, 1, -1 },
  { 0, 18.349999f, 1, -1 },
  { 2, 0.003909f, 1, -2 },
  { 0, 11.300000f, -1, 1 },
  { 0, 17.950000f, 1, -2 },
  { 1, 82.299999f, -2, -1 },
  { 0, 21.650000f, -2, -1 },
  { 2, 0.004815f, 1, -2 },
  { 1, 84.950001f, 1, -1 },
  { 1, 77.950001f, 1, 8 },
  { 2, 0.004727f, -2, 1 },
  { 1, 75.450001f, 1, 2 },
  { 2, 0.004742f, -1, -2 },
  { 1, 75.850002f, 1, -2 },
  { 1, 75.750000f, 1, 2 },
  { 0, 23.200001f, -2, -1 },
  { 2, 0.004748f, -1, -2 },
  { 0, 22.950000f, -2, -1 },
  { 1, 70.850002f, 1, 14 },
  { 2, 0.008135f, 1, -2 },
  { 1, 33.849999f, 1, 2 },
  { 0, 24.300000f, -2, -1 },
  { 2, 0.007679f, 1, 9 },
  { 1, 70.700001f, 1, 7 },
  { 2, 0.006447f, 1, 5 },
  { 1, 61.549999f, 1, 3 },
  { 2, 0.005842f, -1, 1 },
  { 0, 16.950000f, -2, -1 },
  { 2, 0.005778f, -1, -2 },
  { 1, 57.600000f, -1, -2 },
  { 0, 20.650000f, -2, -1 },
  { 0, 19.950001f, -2, -1 },
  { 0, 18.650001f, 1, 2 },
  { 2, 0.009050f, -2, -1 },
  { 2, 0.009050f, -2, -1 },
  { 0, 20.400000f, 1, -1 },
  { 2, 0.009050f, 1, -1 },
  { 0, 19.849999f, 1, 24 },
  { 2, 0.002228f, 1, 10 },
  { 2, 0.002049f, 1, 8 },
  { 2, 0.001328f, 1, 2 },
  { 1, 79.900002f, -2, -1 },
  { 0, 19.550000f, 1, -2 },
  { 2, 0.001850f, -2, 1 },
  { 0, 19.450000f, -2, 1 },
  { 2, 0.001864f, 1, -2 },
  { 1, 88.800003f, -2, -1 },
  { 1, 79.950001f, -2, -1 },
  { 2, 0.003355f, 1, 10 },
  { 2, 0.003268f, 1, 8 },
  { 0, 19.450000f, 1, 4 },
  { 0, 19.250000f, 1, 2 },
  { 1, 79.950001f, -2, -1 },
  { 1, 79.950001f, -2, -1 },
  { 0, 19.650001f, -2, 1 },
  { 2, 0.002598f, 1, -2 },
  { 1, 79.250000f, -2, -1 },
  { 1, 79.950001f, -2, -1 },
  { 2, 0.004050f, 1, -2 },
  { 0, 18.500000f, 1, -2 },
  { 1, 80.099998f, -2, -1 },
  { 0, 20.150001f, 1, 9 },
  { 2, 0.001317f, 1, 4 },
  { 2, 0.001255f, 1, 2 },
  { 1, 79.950001f, -2, -1 },
  { 1, 79.950001f, -2, -1 },
  { 0, 19.950000f, 1, -2 },
  { 2, 0.001329f, 1, 2 },
  { 1, 80.049999f, -2, -1 },
  { 1, 79.450001f, -2, -1 },
  { 1, 84.900002f, -2, -1 },
  { 0, 20.600000f, 1, -1 },
  { 1, 79.950001f, 1, -1 },
  { 1, 74.750000f, 1, 2 },
  { 2, 0.009050f, -2, -1 },
  { 1, 75.250000f, 1, -2 },
  { 0, 18.849999f, 1, 5 },
  { 0, 18.750000f, 1, 3 },
  { 0, 17.300000f, -2, 1 },
  { 1, 75.149998f, -2, -1 },
  { 2, 0.009466f, -2, -1 },
  { 2, 0.009580f, -2, -1 },
  { 1, 71.850002f, 1, 17 },
  { 2, 0.003541f, -2, 1 },
  { 1, 26.200000f, 1, 2 },
  { 0, 21.050000f, -2, -1 },
  { 1, 70.549999f, 1, 4 },
  { 1, 59.950001f, 1, 2 },
  { 0, 20.450000f, -2, -1 },
  { 0, 20.950000f, -2, -1 },
  { 1, 70.649998f, 1, 2 },
  { 0, 20.700000f, -2, -1 },
  { 2, 0.004603f, 1, 5 },
  { 1, 70.950001f, -1, 1 },
  { 1, 71.049999f, 1, 2 },
  { 2, 0.003834f, -2, -1 },
  { 0, 22.000000f, -2, -1 },
  { 2, 0.004901f, -2, 1 },
  { 1, 70.850002f, -1, -2 },
  { 1, 78.450001f, 1, 15 },
  { 2, 0.003571f, 1, 2 },
  { 0, 21.900001f, -2, -1 },
  { 0, 21.200000f, 1, -1 },
  { 0, 18.650001f, 1, 8 },
  { 1, 73.649998f, 1, 4 },
  { 1, 73.549999f, -2, 1 },
  { 0, 18.550000f, 1, -2 },
  { 2, 0.010427f, -2, -1 },
  { 1, 75.200001f, 1, -2 },
  { 0, 18.349999f, -2, 1 },
  { 2, 0.009050f, -2, -1 },
  { 1, 74.750000f, 1, 2 },
  { 2, 0.009050f, -2, -1 },
  { 2, 0.009580f, -2, -1 },
  { 0, 20.150001f, 1, 2 },
  { 1, 79.950001f, -2, -1 },
  { 0, 21.650001f, 1, -1 },
  { 2, 0.003614f, -2, -1 },
  { 0, 20.350000f, 1, 33 },
  { 0, 18.750000f, 1, 10 },
  { 2, 0.009118f, 1, -1 },
  { 2, 0.004050f, 1, -2 },
  { 0, 18.450000f, 1, -2 },
  { 2, 0.004041f, 1, 5 },
  { 0, 18.349999f, 1, -1 },
  { 2, 0.003891f, -2, 1 },
  { 0, 5.550000f, 1, -2 },
  { 2, 0.003925f, -1, -2 },
  { 0, 8.950000f, -2, -1 },
  { 1, 79.950001f, 1, -1 },
  { 0, 18.950000f, 1, 15 },
  { 0, 18.849999f, 1, 13 },
  { 1, 73.649998f, 1, 2 },
  { 2, 0.009340f, -2, -1 },
  { 1, 74.549999f, 1, 6 },
  { 1, 73.950001f, 1, 2 },
  { 2, 0.008839f, -2, -1 },
  { 1, 74.250000f, 1, 2 },
  { 2, 0.009448f, -2, -1 },
  { 2, 0.009479f, -2, -1 },
  { 1, 75.049999f, 1, -2 },
  { 1, 74.649998f, 1, 2 },
  { 2, 0.010188f, -2, -1 },
  { 2, 0.009862f, -2, -1 },
  { 2, 0.009050f, -2, -1 },
  { 0, 19.050000f, 1, 3 },
  { 1, 74.750000f, 1, -2 },
  { 2, 0.008987f, -2, -1 },
  { 1, 74.750000f, 1, 2 },
  { 2, 0.008855f, -2, -1 },
  { 2, 0.009580f, -2, -1 },
  { 1, 76.350002f, -1, 1 },
  { 0, 21.850000f, 1, -1 },
  { 1, 83.700001f, -2, -1 },
  { 1, 71.850002f, 1, 2 },
  { 0, 20.650000f, -2, -1 },
  { 2, 0.003571f, 1, 36 },
  { 2, 0.001313f, 1, 8 },
  { 2, 0.001222f, 1, 5 },
  { 0, 19.950000f, -2, 1 },
  { 0, 20.050000f, 1, -2 },
  { 2, 0.001205f, -2, 1 },
  { 1, 79.950001f, -2, -1 },
  { 0, 19.849999f, -2, 1 },
  { 1, 79.950001f, -2, -1 },
  { 0, 21.900001f, 1, -1 },
  { 0, 19.450000f, 1, 18 },
  { 2, 0.002148f, 1, 2 },
  { 1, 79.900002f, -2, -1 },
  { 2, 0.002642f, 1, 2 },
  { 1, 79.849998f, -2, -1 },
  { 0, 19.250000f, 1, 7 },
  { 0, 19.050000f, -2, 1 },
  { 2, 0.003184f, -2, 1 },
  { 0, 19.150001f, 1, 3 },
  { 2, 0.003297f, 1, -2 },
  { 1, 80.049999f, -2, -1 },
  { 1, 79.849998f, -2, -1 },
  { 2, 0.002955f, 1, 2 },
  { 1, 79.150002f, -2, -1 },
  { 2, 0.002976f, 1, 2 },
  { 1, 79.300003f, -2, -1 },
  { 0, 19.349999f, 1, -2 },
  { 1, 80.350002f, -2, -1 },
  { 2, 0.001328f, 1, 2 },
  { 1, 79.950001f, -2, -1 },
  { 0, 19.849999f, 1, 5 },
  { 0, 19.550000f, 1, 3 },
  { 2, 0.001864f, 1, -2 },
  { 1, 89.000000f, -2, -1 },
  { 1, 79.799999f, -2, -1 },
  { 1, 80.200001f, -2, -1 },
  { 1, 78.049999f, 1, 5 },
  { 0, 21.000000f, 1, -1 },
  { 1, 74.750000f, 1, 2 },
  { 2, 0.009050f, -2, -1 },
  { 2, 0.009646f, -2, -1 },
  { 2, 0.004570f, 1, 21 },
  { 1, 78.350002f, 1, 13 },
  { 2, 0.003874f, 1, 3 },
  { 1, 78.149998f, 1, -1 },
  { 2, 0.003638f, -2, -1 },
  { 1, 78.149998f, 1, 2 },
  { 0, 22.000000f, -2, -1 },
  { 2, 0.004173f, 1, 2 },
  { 0, 23.150000f, -2, -1 },
  { 2, 0.004488f, 1, -2 },
  { 1, 78.250000f, 1, 3 },
  { 2, 0.004363f, -1, 1 },
  { 2, 0.004383f, -2, -1 },
  { 0, 22.900000f, -2, -1 },
  { 1, 78.450001f, 1, 3 },
  { 2, 0.003874f, -1, 1 },
  { 2, 0.004169f, -2, -1 },
  { 0, 20.100000f, 1, -1 },
  { 2, 0.003909f, 1, 2 },
  { 1, 80.399998f, -2, -1 },
  { 1, 84.599998f, -2, -1 },
  { 2, 0.004590f, -2, 1 },
  { 0, 21.050000f, -2, -1 },
  { 1, 71.850002f, 1, 2 },
  { 0, 20.550000f, -2, -1 },
  { 2, 0.003571f, 1, 25 },
  { 2, 0.001328f, 1, 9 },
  { 2, 0.001261f, 1, 7 },
  { 0, 19.950000f, 1, 3 },
  { 0, 19.849999f, -2, 1 },
  { 1, 80.900002f, -2, -1 },
  { 0, 20.050000f, 1, 2 },
  { 1, 79.950001f, -2, -1 },
  { 1, 79.950001f, -2, -1 },
  { 1, 79.950001f, -2, -1 },
  { 1, 79.950001f, 1, -1 },
  { 1, 77.149998f, 1, 3 },
  { 2, 0.003552f, -2, 1 },
  { 0, 21.750000f, -2, -1 },
  { 1, 77.850002f, 1, 9 },
  { 1, 77.250000f, 1, 2 },
  { 0, 21.850000f, -2, -1 },
  { 1, 77.649998f, 1, 5 },
  { 1, 77.350002f, 1, 2 },
  { 0, 21.850000f, -2, -1 },
  { 2, 0.003552f, -2, 1 },
  { 2, 0.003568f, -1, -2 },
  { 0, 21.850000f, -2, -1 },
  { 2, 0.003541f, -2, 1 },
  { 2, 0.003562f, -1, -2 },
  { 0, 20.400001f, 1, -1 },
  { 2, 0.009050f, 1, -1 },
  { 0, 18.450000f, 1, -2 },
  { 0, 18.349999f, 1, -1 },
  { 2, 0.004030f, -2, 1 },
  { 1, 84.250000f, -2, -1 },
  { 0, 20.600000f, 1, -1 },
  { 0, 18.750000f, 1, 28 },
  { 0, 18.650001f, 1, 15 },
  { 1, 73.649998f, 1, 6 },
  { 0, 18.550000f, 1, 3 },
  { 1, 73.549999f, -2, 1 },
  { 2, 0.010380f, -2, -1 },
  { 1, 73.549999f, -2, 1 },
  { 2, 0.010330f, -2, -1 },
  { 0, 18.349999f, 1, 6 },
  { 0, 16.700000f, 1, 3 },
  { 1, 73.850002f, 1, -2 },
  { 0, 6.100000f, -1, -2 },
  { 0, 18.099999f, 1, -2 },
  { 1, 82.450001f, -2, -1 },
  { 0, 18.550000f, -1, 1 },
  { 2, 0.009050f, -2, -1 },
  { 1, 73.850002f, 1, 3 },
  { 1, 73.649998f, -2, 1 },
  { 2, 0.010364f, -2, -1 },
  { 1, 74.649998f, 1, 6 },
  { 1, 74.250000f, 1, 4 },
  { 1, 74.149998f, 1, 2 },
  { 2, 0.009896f, -2, -1 },
  { 2, 0.009611f, -2, -1 },
  { 2, 0.009818f, -2, -1 },
  { 1, 75.250000f, 1, -2 },
  { 1, 75.149998f, 1, -1 },
  { 2, 0.010650f, -2, -1 },
  { 2, 0.009050f, 1, -1 },
  { 1, 79.950001f, -2, -1 },
  { 0, 20.500000f, 1, -1 },
  { 2, 0.009050f, 1, -1 },
  { 0, 19.849999f, 1, 29 },
  { 0, 19.450000f, 1, 13 },
  { 0, 19.250000f, 1, 7 },
  { 0, 5.500000f, 1, 2 },
  { 0, 5.050000f, -2, -1 },
  { 0, 18.450000f, 1, 2 },
  { 1, 81.649998f, -2, -1 },
  { 0, 19.050000f, -2, 1 },
  { 1, 79.950001f, -2, -1 },
  { 2, 0.002909f, 1, 4 },
  { 0, 19.349999f, 1, 2 },
  { 1, 79.549999f, -2, -1 },
  { 1, 79.950001f, -2, -1 },
  { 1, 79.549999f, -2, -1 },
  { 0, 19.750000f, 1, 7 },
  { 2, 0.002591f, 1, -2 },
  { 0, 19.550000f, 1, 3 },
  { 2, 0.002149f, 1, -2 },
  { 1, 80.000000f, -2, -1 },
  { 2, 0.002577f, -2, 1 },
  { 1, 79.700001f, -2, -1 },
  { 2, 0.001328f, 1, 6 },
  { 2, 0.001295f, -2, 1 },
  { 2, 0.001317f, -1, 1 },
  { 2, 0.001325f, 1, 2 },
  { 1, 79.849998f, -2, -1 },
  { 1, 79.600002f, -2, -1 },
  { 2, 0.001883f, 1, -2 },
  { 1, 89.900002f, -2, -1 },
  { 0, 20.150001f, 1, 7 },
  { 2, 0.001329f, 1, 2 },
  { 1, 79.950001f, -2, -1 },
  { 0, 20.050000f, 1, -2 },
  { 2, 0.001368f, 1, 2 },
  { 1, 79.900002f, -2, -1 },
  { 1, 82.549999f, -2, -1 },
  { 1, 84.900002f, -2, -1 },
  { 1, 71.850002f, 1, 45 },
  { 1, 33.550000f, 1, 5 },
  { 2, 0.003755f, 1, 3 },
  { 2, 0.003641f, -2, 1 },
  { 1, 15.700000f, -1, -2 },
  { 0, 21.000000f, -2, -1 },
  { 1, 71.649998f, 1, 35 },
  { 1, 60.350000f, 1, 6 },
  { 2, 0.003589f, 1, 2 },
  { 0, 21.850000f, -2, -1 },
  { 1, 55.350000f, 1, 2 },
  { 0, 20.150000f, -2, -1 },
  { 0, 20.650000f, -2, -1 },
  { 1, 70.250000f, 1, 27 },
  { 1, 63.950001f, 1, 25 },
  { 2, 0.003564f, -2, 1 },
  { 2, 0.005779f, 1, -2 },
  { 1, 61.549999f, 1, 4 },
  { 1, 61.450001f, 1, 2 },
  { 0, 20.700001f, -2, -1 },
  { 0, 20.600000f, -2, -1 },
  { 2, 0.003919f, 1, 5 },
  { 2, 0.003916f, 1, -2 },
  { 1, 63.750000f, 1, 2 },
  { 0, 22.200000f, -2, -1 },
  { 0, 16.900000f, -2, -1 },
  { 1, 62.450001f, 1, 11 },
  { 2, 0.004878f, 1, 9 },
  { 1, 62.250000f, 1, -1 },
  { 1, 62.150000f, 1, 5 },
  { 1, 61.850000f, -1, 1 },
  { 2, 0.004066f, 1, -1 },
  { 2, 0.004063f, -1, 1 },
  { 0, 15.850000f, -2, -1 },
  { 2, 0.004241f, -1, 1 },
  { 0, 15.000000f, -2, -1 },
  { 0, 14.250000f, -2, -1 },
  { 1, 63.250000f, 1, -1 },
  { 0, 21.299999f, -2, -1 },
  { 0, 21.250000f, -2, -1 },
  { 0, 21.000000f, -2, -1 },
  { 1, 71.750000f, 1, 3 },
  { 2, 0.003436f, -2, 1 },
  { 0, 22.000000f, -2, -1 },
  { 0, 21.750000f, -2, -1 },
  { 2, 0.003571f, 1, 3 },
  { 0, 21.900001f, 1, -1 },
  { 1, 79.950001f, -2, -1 },
  { 2, 0.004488f, 1, 9 },
  { 2, 0.003700f, 1, 5 },
  { 2, 0.003657f, 1, 3 },
  { 2, 0.003656f, 1, -2 },
  { 0, 21.800000f, -2, -1 },
  { 0, 21.700000f, -2, -1 },
  { 0, 20.300000f, 1, -1 },
  { 2, 0.004045f, -2, 1 },
  { 1, 84.549999f, -2, -1 },
  { 0, 21.650000f, 1, -1 },
  { 2, 0.009050f, -2, -1 },
  { 0, 20.400000f, 1, -1 },
  { 1, 79.950001f, 1, -1 },
  { 1, 74.750000f, 1, 2 },
  { 2, 0.009050f, -2, -1 },
  { 2, 0.009580f, -2, -1 },
  { 0, 20.600000f, 1, -1 },
  { 1, 79.950001f, 1, -1 },
  { 2, 0.009050f, -2, -1 },
  { 1, 71.950001f, 1, 2 },
  { 0, 20.550000f, -2, -1 },
  { 2, 0.003571f, 1, 21 },
  { 2, 0.001325f, 1, 18 },
  { 2, 0.001261f, 1, 7 },
  { 0, 19.950000f, 1, 3 },
  { 2, 0.001238f, -2, 1 },
  { 1, 80.849998f, -2, -1 },
  { 0, 20.050000f, 1, 2 },
  { 1, 79.950001f, -2, -1 },
  { 1, 79.950001f, -2, -1 },
  { 2, 0.001305f, 1, 7 },
  { 0, 19.849999f, -2, 1 },
  { 2, 0.001281f, 1, -1 },
  { 0, 20.050000f, 1, 2 },
  { 1, 79.950001f, -2, -1 },
  { 2, 0.001270f, 1, -2 },
  { 1, 80.049999f, -2, -1 },
  { 2, 0.001313f, 1, 2 },
  { 1, 80.000000f, -2, -1 },
  { 1, 79.950001f, -2, -1 },
  { 0, 21.900001f, 1, -1 },
  { 1, 79.950001f, -2, -1 },
  { 0, 20.600000f, 1, -1 },
  { 1, 74.750000f, 1, 10 },
  { 0, 18.650001f, 1, 6 },
  { 0, 18.550000f, 1, 2 },
  { 2, 0.009137f, -2, -1 },
  { 1, 73.649998f, 1, 2 },
  { 2, 0.010236f, -2, -1 },
  { 2, 0.009050f, -2, -1 },
  { 1, 73.649998f, 1, 2 },
  { 2, 0.008793f, -2, -1 },
  { 2, 0.009050f, -2, -1 },
  { 1, 80.649998f, 1, -1 },
  { 2, 0.009506f, -2, -1 },
  { 0, 20.600000f, 1, -1 },
  { 2, 0.009050f, 1, -1 },
  { 0, 20.400000f, 1, 40 },
  { 2, 0.001313f, 1, 2 },
  { 1, 79.950001f, -2, -1 },
  { 0, 19.450000f, 1, 31 },
  { 0, 19.250000f, 1, 17 },
  { 2, 0.003297f, 1, 15 },
  { 2, 0.003188f, 1, 5 },
  { 2, 0.002997f, -2, 1 },
  { 0, 19.150001f, -2, 1 },
  { 2, 0.003006f, 1, -2 },
  { 1, 78.099998f, -2, -1 },
  { 0, 19.050000f, -2, 1 },
  { 2, 0.003221f, 1, 3 },
  { 2, 0.003202f, 1, -2 },
  { 1, 77.500000f, -2, -1 },
  { 2, 0.003268f, 1, 2 },
  { 1, 79.849998f, -2, -1 },
  { 0, 19.150001f, 1, 2 },
  { 1, 80.600002f, -2, -1 },
  { 1, 79.899998f, -2, -1 },
  { 1, 80.849998f, -2, -1 },
  { 0, 19.349999f, 1, 2 },
  { 1, 80.049999f, -2, -1 },
  { 2, 0.002228f, 1, 10 },
  { 2, 0.002049f, -2, 1 },
  { 2, 0.002159f, 1, 7 },
  { 2, 0.002098f, 1, 3 },
  { 2, 0.002070f, -1, 1 },
  { 1, 79.900002f, -2, -1 },
  { 2, 0.002131f, 1, 2 },
  { 1, 80.250000f, -2, -1 },
  { 1, 78.899998f, -2, -1 },
  { 1, 79.500000f, -2, -1 },
  { 1, 79.849998f, -2, -1 },
  { 2, 0.001328f, 1, 5 },
  { 2, 0.001325f, 1, 3 },
  { 0, 19.849999f, -2, 1 },
  { 1, 80.049999f, -2, -1 },
  { 1, 79.250000f, -2, -1 },
  { 1, 79.950001f, -2, -1 },
  { 1, 83.700001f, -2, -1 },
  { 0, 20.500000f, 1, -1 },
  { 1, 79.950001f, 1, -1 },
  { 1, 74.649998f, 1, 40 },
  { 0, 18.650001f, 1, 4 },
  { 1, 73.750000f, 1, 2 },
  { 2, 0.009118f, -2, -1 },
  { 2, 0.009050f, -2, -1 },
  { 0, 18.950000f, 1, 15 },
  { 1, 73.750000f, 1, 2 },
  { 2, 0.008984f, -2, -1 },
  { 0, 18.750000f, 1, 11 },
  { 1, 74.250000f, 1, 5 },
  { 1, 73.850002f, -2, 1 },
  { 1, 73.950001f, 1, 2 },
  { 2, 0.009880f, -2, -1 },
  { 2, 0.009809f, -2, -1 },
  { 1, 74.450001f, 1, 2 },
  { 2, 0.009818f, -2, -1 },
  { 1, 74.549999f, 1, 2 },
  { 2, 0.009697f, -2, -1 },
  { 2, 0.010070f, -2, -1 },
  { 2, 0.009050f, -2, -1 },
  { 1, 73.750000f, 1, 3 },
  { 0, 19.050000f, 1, -2 },
  { 2, 0.008666f, -2, -1 },
  { 0, 19.050000f, 1, 2 },
  { 2, 0.008987f, -2, -1 },
  { 1, 74.350002f, 1, 9 },
  { 1, 74.049999f, -2, 1 },
  { 1, 74.149998f, 1, 3 },
  { 0, 19.150001f, 1, -2 },
  { 2, 0.009611f, -2, -1 },
  { 0, 19.150001f, 1, -2 },
  { 1, 74.250000f, 1, 2 },
  { 2, 0.009747f, -2, -1 },
  { 2, 0.008923f, -2, -1 },
  { 0, 19.150001f, 1, -2 },
  { 1, 74.450001f, 1, 2 },
  { 2, 0.008923f, -2, -1 },
  { 1, 74.549999f, 1, 2 },
  { 2, 0.009102f, -2, -1 },
  { 2, 0.009818f, -2, -1 },
  { 2, 0.009647f, -2, -1 },
  { 2, 0.003745f, 1, 17 },
  { 2, 0.003571f, 1, 14 },
  { 2, 0.001316f, 1, 10 },
  { 0, 19.849999f, -2, 1 },
  { 0, 19.950000f, 1, 7 },
  { 2, 0.001255f, 1, 3 },
  { 2, 0.001238f, -2, 1 },
  { 1, 80.599998f, -2, -1 },
  { 2, 0.001305f, 1, 2 },
  { 1, 79.099998f, -2, -1 },
  { 1, 80.100002f, -2, -1 },
  { 1, 79.950001f, -2, -1 },
  { 1, 79.950001f, 1, -1 },
  { 2, 0.003549f, -2, 1 },
  { 0, 21.800000f, -2, -1 },
  { 2, 0.003744f, 1, -2 },
  { 0, 21.850000f, -2, -1 },
  { 1, 72.549999f, 1, 4 },
  { 1, 72.250000f, 1, 2 },
  { 0, 20.550000f, -2, -1 },
  { 0, 22.000000f, -2, -1 },
  { 2, 0.004488f, 1, 8 },
  { 2, 0.003778f, 1, 2 },
  { 0, 21.400001f, -2, -1 },
  { 0, 20.300000f, 1, -1 },
  { 2, 0.003821f, 1, 2 },
  { 1, 83.599998f, -2, -1 },
  { 2, 0.004056f, 1, -2 },
  { 2, 0.004045f, -2, -1 },
  { 0, 21.650000f, 1, -1 },
  { 1, 74.750000f, 1, 39 },
  { 1, 73.649998f, 1, 10 },
  { 1, 73.450001f, 1, 2 },
  { 2, 0.008855f, -2, -1 },
  { 0, 18.550000f, 1, 2 },
  { 2, 0.010713f, -2, -1 },
  { 1, 73.549999f, 1, 4 },
  { 0, 18.950000f, 1, -2 },
  { 0, 18.849999f, -2, 1 },
  { 2, 0.008608f, -2, -1 },
  { 2, 0.008855f, -2, -1 },
  { 0, 18.650001f, 1, 3 },
  { 0, 18.349999f, -2, 1 },
  { 2, 0.009050f, -2, -1 },
  { 1, 74.350002f, 1, 13 },
  { 0, 18.950000f, 1, 8 },
  { 1, 73.950001f, 1, 2 },
  { 2, 0.009050f, -2, -1 },
  { 1, 74.250000f, 1, 2 },
  { 2, 0.009050f, -2, -1 },
  { 0, 18.750000f, 1, 2 },
  { 2, 0.009697f, -2, -1 },
  { 2, 0.008924f, -2, -1 },
  { 1, 73.750000f, 1, 3 },
  { 0, 19.050000f, 1, -2 },
  { 2, 0.008666f, -2, -1 },
  { 2, 0.008923f, -2, -1 },
  { 0, 19.150001f, 1, -2 },
  { 0, 18.750000f, 1, 2 },
  { 2, 0.009818f, -2, -1 },
  { 1, 74.549999f, 1, 8 },
  { 1, 74.450001f, 1, 2 },
  { 2, 0.009017f, -2, -1 },
  { 0, 18.849999f, 1, 2 },
  { 2, 0.010204f, -2, -1 },
  { 0, 18.950000f, 1, 2 },
  { 2, 0.008923f, -2, -1 },
  { 2, 0.009102f, -2, -1 },
  { 2, 0.009315f, -2, -1 },
  { 0, 18.849999f, 1, 7 },
  { 0, 18.650001f, 1, 2 },
  { 2, 0.008668f, -2, -1 },
  { 0, 18.750000f, 1, 3 },
  { 1, 75.250000f, 1, -2 },
  { 2, 0.008870f, -2, -1 },
  { 2, 0.009862f, -2, -1 },
  { 0, 19.150001f, 1, -2 },
  { 2, 0.009580f, -2, -1 },
  { 1, 71.850002f, 1, 18 },
  { 2, 0.003571f, -2, 1 },
  { 1, 25.049999f, 1, 4 },
  { 2, 0.003884f, 1, 2 },
  { 0, 21.900000f, -2, -1 },
  { 0, 20.900001f, -2, -1 },
  { 1, 70.250000f, 1, 5 },
  { 2, 0.008109f, 1, -2 },
  { 1, 60.450001f, 1, 2 },
  { 0, 20.150000f, -2, -1 },
  { 0, 21.000000f, -2, -1 },
  { 2, 0.004441f, 1, 2 },
  { 0, 22.100000f, -2, -1 },
  { 1, 70.700001f, 1, 2 },
  { 0, 20.650000f, -2, -1 },
  { 1, 70.850002f, 1, -2 },
  { 2, 0.004962f, -2, 1 },
  { 2, 0.005168f, -1, -2 },
  { 0, 20.350000f, 1, -1 },
  { 1, 79.950001f, 1, -1 },
  { 0, 18.750000f, 1, 12 },
  { 0, 18.650001f, 1, 8 },
  { 0, 18.550000f, 1, 6 },
  { 1, 73.549999f, -2, 1 },
  { 0, 18.400000f, 1, 3 },
  { 0, 5.950000f, 1, -2 },
  { 0, 3.350000f, -2, -1 },
  { 2, 0.009059f, -2, -1 },
  { 2, 0.009050f, -2, -1 },
  { 1, 73.850002f, 1, 2 },
  { 2, 0.010910f, -2, -1 },
  { 2, 0.009809f, -2, -1 },
  { 0, 19.050000f, 1, 2 },
  { 2, 0.009050f, -2, -1 },
  { 0, 19.150001f, 1, -2 },
  { 1, 74.750000f, 1, 6 },
  { 1, 74.350002f, 1, 2 },
  { 2, 0.008923f, -2, -1 },
  { 1, 74.649998f, 1, 2 },
  { 2, 0.008923f, -2, -1 },
  { 2, 0.009638f, -2, -1 },
  { 2, 0.008600f, -2, -1 },
  { 2, 0.003745f, 1, 3 },
  { 0, 21.850000f, 1, -1 },
  { 1, 79.950001f, -2, -1 },
  { 2, 0.004957f, 1, 7 },
  { 0, 20.500000f, 1, -1 },
  { 2, 0.003812f, 1, 2 },
  { 2, 0.003806f, -2, -1 },
  { 2, 0.004049f, 1, 2 },
  { 1, 80.549999f, -2, -1 },
  { 1, 85.150002f, -2, -1 },
  { 2, 0.007846f, 1, 2 },
  { 0, 20.300000f, -2, -1 },
  { 0, 18.849999f, 1, 2 },
  { 2, 0.009050f, -2, -1 },
  { 0, 20.150001f, 1, -1 },
  { 2, 0.009050f, -2, -1 },
  { 2, 0.003745f, 1, 56 },
  { 1, 67.049999f, 1, 2 },
  { 0, 21.850000f, -2, -1 },
  { 2, 0.003571f, 1, 19 },
  { 0, 21.900001f, 1, -1 },
  { 2, 0.001317f, 1, 16 },
  { 0, 19.849999f, 1, 2 },
  { 1, 80.100002f, -2, -1 },
  { 2, 0.001255f, 1, 5 },
  { 0, 19.950000f, -2, 1 },
  { 0, 20.050000f, 1, 2 },
  { 1, 79.950001f, -2, -1 },
  { 1, 80.000000f, -2, -1 },
  { 2, 0.001305f, 1, 7 },
  { 0, 20.050000f, 1, 5 },
  { 0, 19.950000f, 1, 3 },
  { 2, 0.001270f, 1, -1 },
  { 1, 80.150002f, -2, -1 },
  { 1, 79.900002f, -2, -1 },
  { 1, 80.049999f, -2, -1 },
  { 1, 80.000000f, -2, -1 },
  { 1, 79.950001f, -2, -1 },
  { 2, 0.003744f, 1, -2 },
  { 1, 76.750000f, 1, 32 },
  { 1, 76.149998f, 1, 12 },
  { 2, 0.003660f, 1, 2 },
  { 0, 22.900000f, -2, -1 },
  { 2, 0.003700f, 1, -2 },
  { 1, 75.549999f, 1, 5 },
  { 1, 73.100002f, -1, 1 },
  { 2, 0.003686f, -1, 1 },
  { 1, 74.250000f, -2, 1 },
  { 0, 22.650000f, -2, -1 },
  { 2, 0.003691f, 1, -1 },
  { 1, 76.049999f, -1, 1 },
  { 0, 21.800000f, -2, -1 },
  { 1, 76.649998f, 1, 16 },
  { 2, 0.003701f, 1, 13 },
  { 1, 76.250000f, 1, 3 },
  { 2, 0.003671f, -2, 1 },
  { 2, 0.003700f, -1, -2 },
  { 2, 0.003700f, 1, -2 },
  { 2, 0.003671f, 1, 2 },
  { 0, 22.850000f, -2, -1 },
  { 2, 0.003691f, 1, 3 },
  { 1, 76.350002f, 1, -1 },
  { 0, 21.750000f, -2, -1 },
  { 2, 0.003696f, -1, 1 },
  { 1, 76.450001f, 1, -1 },
  { 0, 22.050000f, -2, -1 },
  { 2, 0.003732f, -1, 1 },
  { 2, 0.003735f, -2, -1 },
  { 2, 0.003704f, 1, -1 },
  { 2, 0.003700f, 1, -2 },
  { 0, 21.700000f, -2, -1 },
  { 0, 21.600000f, -2, -1 },
  { 1, 72.450001f, 1, 12 },
  { 1, 72.250000f, 1, 5 },
  { 1, 25.750000f, 1, 3 },
  { 1, 19.850000f, -1, 1 },
  { 0, 22.400000f, -2, -1 },
  { 0, 20.650000f, -2, -1 },
  { 2, 0.003945f, -1, 1 },
  { 1, 72.350002f, 1, 3 },
  { 2, 0.004235f, -2, 1 },
  { 2, 0.004518f, -1, -2 },
  { 2, 0.004254f, -2, 1 },
  { 0, 23.150000f, -2, -1 },
  { 0, 20.150001f, 1, -1 },
  { 2, 0.009050f, 1, -1 },
  { 2, 0.003821f, 1, 2 },
  { 1, 83.599998f, -2, -1 },
  { 2, 0.004055f, 1, -2 },
  { 2, 0.004043f, -2, -1 },
  { 0, 20.600000f, 1, -1 },
  { 2, 0.009050f, 1, -1 },
  { 2, 0.001328f, 1, 2 },
  { 1, 79.950001f, -2, -1 },
  { 1, 79.950001f, -2, -1 },
  { 0, 20.400000f, 1, 3 },
  { 2, 0.009050f, 1, -1 },
  { 1, 79.950001f, -2, -1 },
  { 1, 76.350002f, -1, 1 },
  { 0, 20.600000f, 1, -1 },
  { 1, 83.700001f, -2, -1 },
  { 1, 71.850002f, 1, 2 },
  { 0, 20.650000f, -2, -1 },
  { 2, 0.003571f, 1, 3 },
  { 1, 79.950001f, 1, -1 },
  { 0, 21.900001f, -2, -1 },
  { 1, 78.149998f, 1, 17 },
  { 2, 0.009050f, 1, -1 },
  { 2, 0.004571f, 1, 14 },
  { 2, 0.003700f, 1, 4 },
  { 1, 76.750000f, 1, 2 },
  { 0, 21.750000f, -2, -1 },
  { 0, 21.600000f, -2, -1 },
  { 2, 0.003745f, 1, 2 },
  { 0, 21.750000f, -2, -1 },
  { 2, 0.003778f, 1, 6 },
  { 1, 75.649998f, 1, 2 },
  { 0, 22.100000f, -2, -1 },
  { 1, 76.950001f, 1, -1 },
  { 2, 0.003766f, -1, 1 },
  { 0, 21.300000f, -2, -1 },
  { 0, 21.400001f, -2, -1 },
  { 0, 23.400000f, -2, -1 },
  { 1, 78.350002f, 1, 2 },
  { 0, 21.800000f, -2, -1 },
  { 2, 0.004566f, 1, 3 },
  { 0, 21.550000f, 1, -1 },
  { 0, 18.700000f, -1, -2 },
  { 0, 21.100000f, -2, -1 },
  { 2, 0.003745f, 1, 20 },
  { 0, 21.850000f, 1, -1 },
  { 2, 0.001313f, 1, 3 },
  { 0, 19.849999f, -2, 1 },
  { 1, 79.950001f, -2, -1 },
  { 2, 0.001328f, 1, 4 },
  { 2, 0.001325f, 1, 2 },
  { 1, 79.950001f, -2, -1 },
  { 1, 79.600002f, -2, -1 },
  { 0, 19.450000f, 1, 10 },
  { 0, 19.250000f, 1, 8 },
  { 2, 0.003188f, 1, 2 },
  { 1, 79.750000f, -2, -1 },
  { 0, 19.050000f, -2, 1 },
  { 0, 19.150001f, 1, 2 },
  { 1, 80.000000f, -2, -1 },
  { 2, 0.003365f, 1, -2 },
  { 1, 79.799999f, -2, -1 },
  { 1, 79.950001f, -2, -1 },
  { 1, 79.950001f, -2, -1 },
  { 0, 20.400000f, 1, -1 },
  { 0, 18.750000f, 1, 3 },
  { 2, 0.009050f, 1, -1 },
  { 1, 80.649998f, -2, -1 },
  { 1, 74.750000f, 1, 4 },
  { 1, 73.649998f, 1, 2 },
  { 2, 0.008716f, -2, -1 },
  { 2, 0.009050f, -2, -1 },
  { 0, 20.150001f, 1, -1 },
  { 2, 0.009523f, -2, -1 },
  { 1, 71.850002f, 1, 2 },
  { 0, 20.650000f, -2, -1 },
  { 0, 20.350000f, 1, -1 },
  { 1, 79.950001f, 1, -1 },
  { 1, 74.750000f, 1, 2 },
  { 2, 0.009050f, -2, -1 },
  { 2, 0.009580f, -2, -1 },
  { 0, 20.600000f, 1, -1 },
  { 1, 79.950001f, 1, -1 },
  { 0, 18.650001f, 1, 8 },
  { 0, 18.550000f, 1, 6 },
  { 0, 18.349999f, 1, 4 },
  { 1, 73.700001f, -2, 1 },
  { 1, 73.850002f, 1, -2 },
  { 0, 6.350000f, -1, -2 },
  { 2, 0.008923f, -2, -1 },
  { 2, 0.009052f, -2, -1 },
  { 0, 18.950000f, 1, 9 },
  { 0, 18.750000f, 1, 2 },
  { 2, 0.009938f, -2, -1 },
  { 0, 18.849999f, 1, 5 },
  { 1, 73.649998f, 1, 3 },
  { 1, 73.250000f, -2, 1 },
  { 2, 0.009340f, -2, -1 },
  { 2, 0.008903f, -2, -1 },
  { 2, 0.009050f, -2, -1 },
  { 1, 74.750000f, 1, 5 },
  { 0, 19.150001f, 1, -2 },
  { 0, 19.050000f, 1, 2 },
  { 2, 0.009086f, -2, -1 },
  { 2, 0.009102f, -2, -1 },
  { 1, 74.850002f, 1, 2 },
  { 2, 0.009506f, -2, -1 },
  { 0, 19.150001f, 1, -2 },
  { 0, 19.050000f, -2, 1 },
  { 1, 75.250000f, 1, -2 },
  { 2, 0.009580f, -2, -1 },
  { 2, 0.003745f, 1, 23 },
  { 1, 63.350000f, 1, 12 },
  { 1, 38.550000f, 1, 3 },
  { 1, 25.650000f, -2, 1 },
  { 1, 25.849999f, -1, -2 },
  { 1, 57.650000f, 1, 2 },
  { 0, 21.800000f, -2, -1 },
  { 1, 62.850000f, 1, 3 },
  { 1, 59.750000f, -1, 1 },
  { 0, 22.750000f, -2, -1 },
  { 1, 63.250000f, 1, 2 },
  { 0, 22.800000f, -2, -1 },
  { 0, 16.400000f, -2, -1 },
  { 2, 0.003571f, 1, 3 },
  { 0, 21.900001f, 1, -1 },
  { 1, 79.950001f, -2, -1 },
  { 1, 76.850002f, 1, 5 },
  { 2, 0.003744f, 1, -2 },
  { 1, 76.149998f, 1, 2 },
  { 0, 21.750000f, -2, -1 },
  { 0, 22.000000f, -2, -1 },
  { 2, 0.003744f, 1, -2 },
  { 0, 21.600000f, -2, -1 },
  { 2, 0.004957f, 1, 30 },
  { 1, 72.549999f, 1, 27 },
  { 1, 72.250000f, 1, 24 },
  { 1, 25.750000f, 1, 5 },
  { 1, 19.850000f, -1, 1 },
  { 1, 24.200001f, 1, 2 },
  { 0, 21.800000f, -2, -1 },
  { 0, 22.400000f, -2, -1 },
  { 2, 0.004956f, 1, -2 },
  { 1, 60.850000f, 1, 16 },
  { 1, 47.950001f, 1, 2 },
  { 0, 12.650000f, -2, -1 },
  { 2, 0.004581f, 1, -1 },
  { 2, 0.003917f, -1, 1 },
  { 2, 0.003919f, -2, 1 },
  { 2, 0.004002f, 1, 9 },
  { 1, 55.549999f, 1, 2 },
  { 0, 12.700000f, -2, -1 },
  { 1, 56.450001f, 1, -1 },
  { 1, 56.350000f, 1, 2 },
  { 0, 13.200000f, -2, -1 },
  { 2, 0.003954f, -1, 1 },
  { 2, 0.003963f, 1, -1 },
  { 0, 14.150000f, -2, -1 },
  { 0, 20.950000f, -2, -1 },
  { 0, 20.950000f, -2, -1 },
  { 2, 0.003905f, -1, 1 },
  { 0, 22.150000f, -2, -1 },
  { 0, 20.150001f, 1, -1 },
  { 1, 84.700001f, -2, -1 },
  { 1, 70.700001f, 1, 4 },
  { 1, 34.199999f, 1, 2 },
  { 0, 24.150000f, -2, -1 },
  { 0, 20.050000f, -2, -1 },
  { 1, 73.649998f, 1, 13 },
  { 1, 73.549999f, 1, 4 },
  { 1, 70.950001f, 1, 2 },
  { 2, 0.005168f, -1, -2 },
  { 2, 0.008855f, -2, -1 },
  { 0, 18.550000f, 1, 2 },
  { 2, 0.010380f, -2, -1 },
  { 0, 18.849999f, 1, 5 },
  { 0, 18.650001f, 1, 2 },
  { 2, 0.010173f, -2, -1 },
  { 0, 18.750000f, -2, 1 },
  { 2, 0.009503f, -2, -1 },
  { 2, 0.008482f, -2, -1 },
  { 1, 74.750000f, 1, 22 },
  { 1, 74.450001f, 1, 2 },
  { 2, 0.009050f, -2, -1 },
  { 0, 18.750000f, 1, 5 },
  { 1, 74.649998f, 1, 2 },
  { 2, 0.009421f, -2, -1 },
  { 0, 18.650001f, -1, 1 },
  { 2, 0.010650f, -2, -1 },
  { 0, 19.150001f, 1, -2 },
  { 0, 18.849999f, 1, 2 },
  { 2, 0.010134f, -2, -1 },
  { 1, 74.549999f, 1, 6 },
  { 0, 18.950000f, 1, 2 },
  { 2, 0.008923f, -2, -1 },
  { 0, 19.050000f, 1, 2 },
  { 2, 0.009362f, -2, -1 },
  { 2, 0.009102f, -2, -1 },
  { 0, 19.050000f, 1, 4 },
  { 0, 18.950000f, 1, 2 },
  { 2, 0.009401f, -2, -1 },
  { 2, 0.009437f, -2, -1 },
  { 2, 0.009647f, -2, -1 },
  { 0, 18.650001f, -1, 1 },
  { 1, 75.250000f, 1, -2 },
  { 1, 74.950001f, 1, 5 },
  { 1, 74.850002f, 1, 2 },
  { 2, 0.008791f, -2, -1 },
  { 0, 18.849999f, 1, -2 },
  { 2, 0.009064f, -2, -1 },
  { 1, 75.049999f, 1, 3 },
  { 0, 18.849999f, 1, -2 },
  { 2, 0.009064f, -2, -1 },
  { 0, 19.000000f, -2, 1 },
  { 1, 75.149998f, -2, 1 },
  { 0, 19.150001f, 1, -2 },
  { 2, 0.008176f, -2, -1 },
  { 0, 20.400000f, 1, -1 },
  { 0, 18.750000f, 1, 11 },
  { 0, 18.650001f, 1, 9 },
  { 0, 18.550000f, 1, 7 },
  { 0, 17.600000f, 1, 4 },
  { 1, 80.199997f, 1, -1 },
  { 0, 5.850000f, 1, -2 },
  { 2, 0.008879f, -2, -1 },
  { 2, 0.009137f, 1, -1 },
  { 1, 81.700001f, -2, -1 },
  { 2, 0.009050f, -2, -1 },
  { 2, 0.009938f, -2, -1 },
  { 1, 79.950001f, 1, -1 },
  { 0, 19.050000f, 1, 12 },
  { 0, 18.950000f, 1, 10 },
  { 0, 18.849999f, 1, 4 },
  { 1, 73.649998f, 1, 2 },
  { 2, 0.009443f, -2, -1 },
  { 2, 0.008855f, -2, -1 },
  { 1, 73.549999f, 1, 4 },
  { 1, 73.450001f, 1, 2 },
  { 2, 0.008539f, -2, -1 },
  { 2, 0.008551f, -2, -1 },
  { 2, 0.009050f, -2, -1 },
  { 2, 0.009086f, -2, -1 },
  { 2, 0.009033f, -2, -1 },
  { 1, 71.950001f, 1, 5 },
  { 2, 0.003571f, 1, 3 },
  { 1, 51.700001f, 1, -2 },
  { 1, 38.950000f, -2, -1 },
  { 0, 20.550000f, -2, -1 },
  { 0, 20.350000f, 1, -1 },
  { 1, 79.950001f, 1, -1 },
  { 0, 18.750000f, 1, 26 },
  { 0, 18.650001f, 1, 4 },
  { 1, 73.649998f, 1, 2 },
  { 2, 0.010729f, -2, -1 },
  { 2, 0.009050f, -2, -1 },
  { 1, 74.049999f, 1, 7 },
  { 1, 73.750000f, -2, 1 },
  { 1, 73.850002f, 1, 2 },
  { 2, 0.010220f, -2, -1 },
  { 1, 73.950001f, 1, 2 },
  { 2, 0.009880f, -2, -1 },
  { 2, 0.009962f, -2, -1 },
  { 1, 74.649998f, 1, 10 },
  { 1, 74.250000f, 1, 2 },
  { 2, 0.009763f, -2, -1 },
  { 1, 74.549999f, 1, 6 },
  { 1, 74.350002f, 1, 2 },
  { 2, 0.009818f, -2, -1 },
  { 1, 74.450001f, 1, 2 },
  { 2, 0.009757f, -2, -1 },
  { 2, 0.009697f, -2, -1 },
  { 2, 0.010070f, -2, -1 },
  { 1, 74.750000f, 1, 2 },
  { 2, 0.009474f, -2, -1 },
  { 1, 75.250000f, 1, -2 },
  { 1, 75.149998f, -2, -1 },
  { 0, 18.950000f, 1, 2 },
  { 2, 0.009050f, -2, -1 },
  { 0, 19.050000f, 1, 2 },
  { 2, 0.008987f, -2, -1 },
  { 0, 19.150001f, 1, -2 },
  { 1, 74.750000f, 1, -2 },
  { 1, 74.549999f, 1, 2 },
  { 2, 0.009102f, -2, -1 },
  { 2, 0.009647f, -2, -1 },
  { 1, 71.850002f, 1, 43 },
  { 1, 33.550000f, 1, 5 },
  { 1, 19.850000f, 1, 2 },
  { 2, 0.003022f, -2, -1 },
  { 1, 23.099999f, -2, 1 },
  { 0, 21.850000f, -2, -1 },
  { 2, 0.003541f, -2, 1 },
  { 2, 0.008243f, 1, -2 },
  { 2, 0.003571f, 1, 2 },
  { 0, 21.850000f, -2, -1 },
  { 1, 60.350000f, 1, 2 },
  { 0, 20.450000f, -2, -1 },
  { 1, 70.549999f, 1, 26 },
  { 1, 61.750000f, 1, 24 },
  { 1, 61.049999f, 1, 7 },
  { 2, 0.003921f, 1, 5 },
  { 2, 0.003881f, 1, 3 },
  { 2, 0.003722f, -1, 1 },
  { 2, 0.003792f, -2, -1 },
  { 0, 22.650001f, -2, -1 },
  { 0, 20.700001f, -2, -1 },
  { 1, 61.250000f, 1, 8 },
  { 2, 0.006072f, 1, -2 },
  { 1, 61.150000f, 1, 2 },
  { 0, 14.750000f, -2, -1 },
  { 2, 0.003799f, 1, 2 },
  { 0, 16.600000f, -2, -1 },
  { 2, 0.004172f, 1, -1 },
  { 2, 0.004164f, -1, -2 },
  { 1, 61.450001f, 1, 3 },
  { 2, 0.004169f, 1, -1 },
  { 0, 21.700000f, -2, -1 },
  { 2, 0.005883f, 1, -2 },
  { 2, 0.003921f, 1, 3 },
  { 1, 61.650000f, 1, -1 },
  { 0, 21.900001f, -2, -1 },
  { 0, 11.100000f, -2, -1 },
  { 0, 20.850000f, -2, -1 },
  { 2, 0.004441f, 1, 2 },
  { 0, 21.750000f, -2, -1 },
  { 2, 0.004937f, -2, 1 },
  { 1, 70.850002f, 1, -2 },
  { 2, 0.005066f, -1, -2 },
  { 1, 78.450001f, 1, 26 },
  { 2, 0.003571f, 1, 12 },
  { 1, 77.149998f, 1, 2 },
  { 0, 21.900001f, -2, -1 },
  { 2, 0.003535f, -2, 1 },
  { 1, 77.250000f, 1, 2 },
  { 0, 21.750000f, -2, -1 },
  { 1, 77.850002f, 1, 4 },
  { 2, 0.003568f, 1, -2 },
  { 1, 77.500000f, 1, -1 },
  { 0, 21.800000f, -2, -1 },
  { 1, 77.950001f, 1, -2 },
  { 2, 0.003562f, -1, -2 },
  { 2, 0.009050f, 1, -1 },
  { 2, 0.004571f, 1, 8 },
  { 2, 0.003700f, 1, 6 },
  { 2, 0.003657f, 1, 2 },
  { 0, 21.600000f, -2, -1 },
  { 2, 0.003689f, -1, 1 },
  { 2, 0.003690f, -2, 1 },
  { 0, 22.000000f, -2, -1 },
  { 0, 21.000000f, -2, -1 },
  { 1, 78.250000f, 1, 2 },
  { 0, 23.400000f, -2, -1 },
  { 1, 78.350002f, 1, -2 },
  { 2, 0.004631f, -2, -1 },
  { 0, 20.350000f, 1, -1 },
  { 0, 19.450000f, 1, 5 },
  { 0, 19.250000f, 1, 3 },
  { 2, 0.002989f, -2, 1 },
  { 1, 80.000000f, -2, -1 },
  { 1, 79.950001f, -2, -1 },
  { 0, 19.750000f, 1, 9 },
  { 2, 0.002591f, 1, -2 },
  { 2, 0.002570f, 1, 6 },
  { 2, 0.001827f, -2, 1 },
  { 0, 19.550000f, 1, -2 },
  { 2, 0.001926f, -1, 1 },
  { 2, 0.002070f, -2, 1 },
  { 1, 80.000000f, -2, -1 },
  { 1, 79.700001f, -2, -1 },
  { 1, 79.950001f, -2, -1 },
  { 0, 20.400000f, 1, -1 },
  { 2, 0.009050f, 1, -1 },
  { 2, 0.001317f, 1, 13 },
  { 2, 0.001261f, 1, 3 },
  { 2, 0.001211f, -2, 1 },
  { 1, 79.950001f, -2, -1 },
  { 0, 19.849999f, 1, 3 },
  { 0, 19.750000f, -2, 1 },
  { 1, 79.850002f, -2, -1 },
  { 2, 0.001305f, 1, 5 },
  { 2, 0.001281f, 1, -1 },
  { 0, 20.050000f, 1, 2 },
  { 1, 79.900002f, -2, -1 },
  { 1, 80.049999f, -2, -1 },
  { 1, 80.100002f, -2, -1 },
  { 0, 19.450000f, 1, 9 },
  { 0, 19.250000f, 1, 2 },
  { 1, 80.000000f, -2, -1 },
  { 2, 0.002976f, 1, 2 },
  { 1, 79.900002f, -2, -1 },
  { 0, 19.349999f, 1, -2 },
  { 2, 0.003006f, 1, -2 },
  { 2, 0.003001f, -2, 1 },
  { 1, 80.350002f, -2, -1 },
  { 2, 0.001325f, 1, 3 },
  { 0, 19.750000f, -2, 1 },
  { 1, 80.100002f, -2, -1 },
  { 1, 79.950001f, -2, -1 },
  { 2, 0.003745f, 1, 17 },
  { 0, 21.700001f, 1, -1 },
  { 0, 19.849999f, 1, 2 },
  { 1, 79.950001f, -2, -1 },
  { 2, 0.001329f, 1, 7 },
  { 0, 19.950000f, 1, 5 },
  { 2, 0.001255f, 1, 3 },
  { 2, 0.001238f, -2, 1 },
  { 1, 80.650002f, -2, -1 },
  { 1, 80.049999f, -2, -1 },
  { 1, 79.950001f, -2, -1 },
  { 0, 19.950000f, 1, 5 },
  { 2, 0.001974f, 1, -2 },
  { 2, 0.001769f, 1, 2 },
  { 1, 79.450001f, -2, -1 },
  { 1, 80.349998f, -2, -1 },
  { 1, 80.049999f, -2, -1 },
  { 2, 0.004957f, 1, 3 },
  { 0, 20.300000f, 1, -1 },
  { 1, 80.649998f, -2, -1 },
  { 2, 0.007846f, 1, 2 },
  { 0, 20.300000f, -2, -1 },
  { 0, 18.849999f, 1, 2 },
  { 2, 0.009050f, -2, -1 },
  { 2, 0.009050f, 1, -1 },
  { 1, 63.400002f, -1, -2 },
  { 1, 71.850002f, 1, 2 },
  { 0, 20.650000f, -2, -1 },
  { 2, 0.003571f, 1, 4 },
  { 1, 79.950001f, 1, -1 },
  { 2, 0.003549f, -2, 1 },
  { 2, 0.003568f, -1, -2 },
  { 2, 0.004571f, 1, 4 },
  { 0, 20.150001f, 1, -1 },
  { 2, 0.003821f, 1, -2 },
